var json_string = '{"layers":[{"out_depth":71,"out_sx":2,"out_sy":1,"layer_type":"input"},{"sx":10,"sy":10,"stride":1,"in_depth":71,"out_depth":8,"out_sx":-3,"out_sy":-4,"layer_type":"conv","l1_decay_mul":0,"l2_decay_mul":1,"pad":2,"filters":[{"sx":10,"sy":10,"depth":71,"w":{"0":0.005602522888327368,"1":-0.011577213340624793,"2":0.01758303441195108,"3":-0.0028703554523461334,"4":0.005143030945947132,"5":0.012324530455684381,"6":-0.01387610136550044,"7":0.02724870534423708,"8":-0.011133342972701587,"9":-0.007861702219355017,"10":0.011810862455915736,"11":0.0031599814138927804,"12":0.026717874958016745,"13":0.003089403590368475,"14":0.016219441414918094,"15":-0.011414451650098164,"16":0.007158355197545772,"17":0.00843730580221107,"18":0.016346391466053104,"19":-0.014578046548778418,"20":0.0038694269540878903,"21":0.0027785538880309483,"22":0.00036715444281857176,"23":-0.004149496321515185,"24":0.0008948762526121918,"25":0.008022557413805864,"26":0.02653069592271822,"27":0.0015170522476719757,"28":-0.005826422904912571,"29":0.00552419836292522,"30":0.0042689560132918815,"31":0.009062711443672475,"32":-0.009135936739743153,"33":-0.0035601652910168687,"34":0.021727592331986886,"35":0.0003721982279479744,"36":-0.01198629168665319,"37":0.010096691596953405,"38":0.018338799391349307,"39":-0.014986180204839841,"40":-0.0028230747080781955,"41":0.005093679046312599,"42":0.004818854957117645,"43":0.0023837747434228298,"44":0.02189625450421723,"45":0.0061892061325730585,"46":0.005528120897264237,"47":-0.006725547317296047,"48":-0.005766679556815561,"49":0.0288047184696393,"50":0.0026994845056811587,"51":-0.01675614606843019,"52":-0.01354174513280756,"53":0.013430601675995845,"54":-0.016290147345896285,"55":-0.011542515958973395,"56":-0.005290675907964167,"57":-0.005700938149965379,"58":0.002393989044304927,"59":-0.006081475217842687,"60":0.009218944258314333,"61":-0.01611791451864431,"62":0.0056157364301321925,"63":-0.0035507184524184274,"64":-0.01106665845834564,"65":-0.010622197782872982,"66":0.003545986642645571,"67":-0.0003558905551047475,"68":0.01416936575443391,"69":-0.004796258229289014,"70":0.005584896768030656,"71":-0.010005929765620486,"72":0.025674447874310707,"73":0.019799249951241313,"74":-0.004969814773614186,"75":-0.008988632216294323,"76":-0.01819143705822368,"77":-0.0013484713702773161,"78":0.008240883488338626,"79":-0.008327829806636334,"80":0.004702032236754052,"81":-0.015220201514019803,"82":-0.002100148070263385,"83":-0.017309044318915005,"84":0.005163369722807335,"85":-0.000516370870040537,"86":-0.01618853693116784,"87":0.00034263002620774807,"88":0.003445037190785324,"89":-0.016471429501228717,"90":-0.0003203480800833236,"91":-0.007994678413919551,"92":-0.00033899392176160915,"93":0.00964472205638951,"94":0.019717660104739305,"95":0.020185158559872365,"96":-0.0017912676451523992,"97":0.0017287882409071885,"98":-0.003461684427314505,"99":0.022807239725172308,"100":0.007663116947520552,"101":0.000640276904481368,"102":0.017863282102483096,"103":-0.01531731809081665,"104":-0.019406280617868338,"105":-0.011506509198107523,"106":0.008390082893656175,"107":0.006325684401296131,"108":-0.0006282200521324897,"109":0.0012987563003006358,"110":0.008146767855089554,"111":-0.014190020795108494,"112":-0.008552375988198168,"113":0.031019181825960227,"114":0.03253356834338103,"115":-0.01304844532304466,"116":-0.002963657736748666,"117":-0.00033657634514798934,"118":0.0003223665098906244,"119":-0.0018731406555986302,"120":-0.022010132673129054,"121":-0.007621698574639008,"122":-0.012056756866828625,"123":-0.014714867880021987,"124":0.007977844272637516,"125":-0.01442963881803422,"126":-0.005461512153731417,"127":-0.003589500596664737,"128":-0.009663667897599806,"129":-0.005144534804079204,"130":-0.013349364402423503,"131":0.01976319754730851,"132":0.02425906033860832,"133":-0.013094048825156286,"134":-0.010313426101956747,"135":0.010411467226918325,"136":0.004382226577663208,"137":0.0075566983858074855,"138":0.011224775337387178,"139":-0.0048843997693986665,"140":-0.004862235907713845,"141":0.013550627669841135,"142":0.002036642611016919,"143":0.0040078122584393,"144":0.008262780696730025,"145":-0.005796751469181973,"146":0.0013742032887007498,"147":-0.011625310528898423,"148":0.006325374125387288,"149":-0.01549307403869545,"150":0.004065473210664335,"151":0.00004645591518657295,"152":-0.004105583629885423,"153":0.002982163164559793,"154":-0.001375937961774463,"155":0.005310252856881908,"156":0.005814632442863809,"157":-0.007103067270586598,"158":0.0012294317520818955,"159":-0.007416653942442003,"160":0.012542422903216473,"161":0.0020958880118998363,"162":0.005935981037155177,"163":0.01774090961458291,"164":0.0061449708771346345,"165":-0.011857257609525157,"166":-0.00273830853534753,"167":0.015832440929681824,"168":0.0022567643879547717,"169":0.006893916286595005,"170":-0.00020468923783566743,"171":0.024849034038761594,"172":-0.011073077487954722,"173":0.026230276927920782,"174":0.011435139846242686,"175":0.006277658358574233,"176":0.012906692094257807,"177":0.02354624627358013,"178":0.01144604974061443,"179":0.008494919973753758,"180":0.0038451168984659488,"181":0.007206714230877279,"182":0.02021591512340968,"183":0.018486975338904428,"184":0.024971777013436645,"185":0.0020520191662406636,"186":-0.008171418910152434,"187":0.016332584114079087,"188":-0.003871677952703749,"189":-0.0016100754922214013,"190":0.03523837449406975,"191":-0.013523439260006374,"192":0.0022627069817683625,"193":-0.002191524108794823,"194":0.008531449680850133,"195":0.002295798435286744,"196":0.021073522600484982,"197":-0.0005107999440823389,"198":0.004869941808692515,"199":0.014512079940454097,"200":-0.014901381384542337,"201":0.01025736145543524,"202":-0.0010197040206482739,"203":-0.006789415281065632,"204":-0.003961380469135321,"205":-0.0003168219812905059,"206":-0.013645771768935626,"207":0.011991867437475852,"208":0.007866828484629362,"209":-0.007439415343066725,"210":-0.0024918425996598875,"211":0.009849195955927556,"212":-0.022432824998942624,"213":-0.0027209740108246026,"214":0.026093815259415554,"215":0.0005045890513978434,"216":0.015712402466875566,"217":0.0008614921446936431,"218":0.00854580594769114,"219":0.0011463063684152665,"220":-0.015952860622615174,"221":-0.003207529266085558,"222":-0.003692185479121344,"223":-0.006889747565330132,"224":0.010187956843877244,"225":0.003597771686810956,"226":-0.02126766786946316,"227":0.004356176730119039,"228":-0.011809710566567082,"229":-0.007872888136491807,"230":0.0010376927146746743,"231":-0.01894144587792496,"232":-0.012950232775406273,"233":-0.01354504478065282,"234":-0.0186249971400368,"235":-0.010081985463597856,"236":-0.0018527302517367956,"237":-0.00787512839496772,"238":-0.005772288741209635,"239":-0.018810523794318242,"240":0.008568287550452146,"241":0.007130865967556824,"242":-0.023748051493150586,"243":0.007277297251048926,"244":-0.0006400162195156827,"245":-0.014908487171239118,"246":0.019972206615571413,"247":-0.0023070613381197197,"248":-0.021152462387834112,"249":0.0057450204086188904,"250":0.0001594021823063229,"251":0.02378261035579106,"252":-0.0004821334852020203,"253":0.017273542532576718,"254":-0.003896634121757773,"255":-0.003030885757999352,"256":0.014804599319434713,"257":0.0025812192489859725,"258":0.006905490628242904,"259":0.0058352481171874875,"260":-0.009031203800361081,"261":0.009095976593396183,"262":0.006909280602532283,"263":0.025987553725888575,"264":-0.007222158480369324,"265":0.00486834016446095,"266":-0.004477417242410088,"267":-0.00011394155009565108,"268":-0.006030360315401338,"269":0.0017176983065251136,"270":-0.004430170491987936,"271":-0.01777326524304811,"272":0.001991747071415593,"273":-0.006482769662035174,"274":-0.008356658078821399,"275":0.009367786925689353,"276":-0.013702262023033273,"277":0.0019203355398350339,"278":0.007865657207049832,"279":-0.007807383859073872,"280":-0.0026579812934823224,"281":0.014650981477929377,"282":0.01653002514558957,"283":-0.010974820452551066,"284":0.019528048098403205,"285":-0.013805510811199477,"286":-0.0020523634944974753,"287":0.013725506195921573,"288":-0.002933153983529818,"289":-0.02808876878595284,"290":0.031020442246657967,"291":0.013130085133765807,"292":-0.00206197068285764,"293":0.006427574508107968,"294":-0.012917088795896156,"295":-0.0012838541177889835,"296":0.005203129742641326,"297":-0.012509017424459052,"298":-0.03016468801903661,"299":0.013026053120909426,"300":0.018617912118691196,"301":-0.0030135054657014436,"302":-0.018932364282605113,"303":-0.0048108033617904385,"304":-0.01843913009377042,"305":0.02027813118885831,"306":0.023196624018489147,"307":-0.0034280932221928966,"308":-0.002774066557557964,"309":-0.024515619089098818,"310":0.009642979732528898,"311":-0.006690456350940796,"312":0.005648376187074986,"313":-0.004991291074033384,"314":0.0018983180640190066,"315":-0.004928106657937396,"316":-0.013637540989123079,"317":-0.0011753697969130214,"318":0.007408001112746693,"319":0.0015224671052383868,"320":-0.006946618008011691,"321":0.005481744179339317,"322":-0.005081198373823455,"323":-0.0065087756732886345,"324":0.016922190868406083,"325":-0.011299536472262598,"326":-0.009266987246389474,"327":-0.017869794904757045,"328":-0.003750777410879254,"329":-0.009928314030275142,"330":0.006875825824670044,"331":0.017209143110473325,"332":0.014229087470655606,"333":-0.010338966038303121,"334":-0.0000308066372644366,"335":-0.018433706986507183,"336":0.005995509975278259,"337":0.0010753415184026895,"338":-0.006948306996163324,"339":-0.00005640982613782905,"340":-0.005501260655078691,"341":0.00599568115411005,"342":-0.005062806814343841,"343":0.005503619851917797,"344":0.005001692648704003,"345":0.0031184557870419286,"346":0.02746229204398547,"347":0.0027139185899519823,"348":0.004036255789557423,"349":-0.00037136595920525577,"350":0.010052488580141225,"351":-0.01114740788453135,"352":-0.017695282500468295,"353":-0.005084671907000397,"354":-0.010214731631752657,"355":-0.026109212343123456,"356":0.007322325995283073,"357":0.012230026087414837,"358":0.013514130675756304,"359":-0.005892269503243489,"360":-0.008546186829120709,"361":-0.007934308127608113,"362":-0.00681593806471386,"363":0.0009893855339992447,"364":-0.01601504156930927,"365":-0.003927054011333522,"366":0.004072587961112804,"367":-0.0022126415219261403,"368":-0.00037636189425419486,"369":-0.0035181614525196586,"370":0.01866752175779951,"371":0.006017960610878505,"372":-0.00730143544976104,"373":0.021977159167823633,"374":-0.005767467508502478,"375":0.004860950132345565,"376":-0.014739029755506021,"377":-0.01863968292686069,"378":-0.0014767413122026153,"379":0.015915615775478304,"380":0.022253097714849006,"381":-0.011883451790070287,"382":-0.0028408117219234676,"383":0.00398592128353173,"384":0.005523586309243564,"385":0.00033628317795658544,"386":-0.006095838150959732,"387":0.01306105880221604,"388":-0.008792442494152267,"389":0.012227311203705961,"390":0.02105776746606065,"391":-0.013102190908893484,"392":-0.003148736426622102,"393":-0.013869406941800316,"394":0.00682297606975047,"395":0.008024380742245088,"396":-0.0031187687268131857,"397":-0.00859110190329825,"398":-0.003230768610282056,"399":0.027341812261846166,"400":-0.0012210605674979203,"401":-0.016259586671301996,"402":0.005729036177665997,"403":0.019501035583458618,"404":0.011224796794198239,"405":0.006362887557437251,"406":-0.010919458088566428,"407":-0.006265476608489776,"408":0.0032932613947710783,"409":-0.009334081421510761,"410":-0.019113162886169786,"411":0.0059205793998412205,"412":-0.003321080363550868,"413":0.02474899886004112,"414":0.007483816992916684,"415":-0.016351276838243854,"416":-0.001418333357230599,"417":-0.012689740554690064,"418":-0.009117827334549416,"419":0.006335593715322278,"420":-0.01193897165938527,"421":-0.006490210100388014,"422":0.001367057488465416,"423":-0.012425326956894578,"424":-0.019676708362471353,"425":-0.004960169430777766,"426":-0.0009703474642388264,"427":0.008292039600366624,"428":0.008845023835559553,"429":0.016336017817071093,"430":-0.009449925003901908,"431":0.0025047329263088638,"432":-0.013944898576790005,"433":0.0010700584178063195,"434":-0.01337787884582662,"435":0.008067753907782575,"436":-0.011841841644681125,"437":-0.005973726700012715,"438":-0.007133429206684786,"439":0.003760141661072888,"440":-0.00770077601119442,"441":0.015553089471439562,"442":-0.013444685034331102,"443":0.0026568262530514424,"444":0.014238130693444314,"445":-0.01360757592975906,"446":-0.009874021940629455,"447":0.0041760235650177,"448":0.022626938172705356,"449":-0.012814412861688076,"450":-0.0059733372714736496,"451":0.012714554180668934,"452":0.0013849234254447867,"453":-0.015032071053455446,"454":-0.0028409631208747756,"455":-0.013923739378941292,"456":-0.005764881072022554,"457":0.011999358409685808,"458":0.006434462758376581,"459":0.016313269747693326,"460":-0.004845529908919269,"461":-0.02489361581948643,"462":0.0030779888573713617,"463":-0.013442610736872564,"464":-0.013838258851307872,"465":-0.006838371767411041,"466":-0.012138494258557822,"467":0.0068546000263274625,"468":0.004980773960093861,"469":-0.0012271062400755468,"470":-0.001615043409457821,"471":0.01144473082649388,"472":-0.009976475759760677,"473":-0.009703516705907855,"474":0.02500380062956411,"475":-0.002955717910217448,"476":-0.0008901379124793216,"477":0.0027654211052502977,"478":-0.005048987589763181,"479":-0.023002122960560614,"480":0.0004887270828257434,"481":-0.0016245327908192418,"482":-0.017999735468523837,"483":-0.015031720043279502,"484":-0.0029607588679580617,"485":0.0038428966972753535,"486":0.009094877233198559,"487":-0.0012772892574504481,"488":0.016706830835831295,"489":0.005938371444074644,"490":-0.021391533831922892,"491":-0.0006178019033624657,"492":0.01828351763465659,"493":0.001094025015937788,"494":-0.007968219980752774,"495":0.0062570094383535245,"496":0.027162172411500863,"497":-0.00794011272996079,"498":0.017682285159008104,"499":-0.027971733971828183,"500":-0.010748532029195896,"501":-0.0025777384954541785,"502":-0.03383702002105564,"503":-0.0030500978686480674,"504":-0.0024181311959711473,"505":0.008572771256500996,"506":0.015701064846877735,"507":0.00934839955406977,"508":0.002479099804001282,"509":0.020399407739464033,"510":0.0003084334393009967,"511":-0.004040075927457271,"512":-0.01967069691112915,"513":0.0035253774280385674,"514":-0.0040114188421516185,"515":0.012251404572613547,"516":0.018905008027066447,"517":0.019730092292954426,"518":0.000308068911616459,"519":0.0087019644446522,"520":-0.00028816905976499375,"521":0.002731482190355456,"522":0.005515575968338182,"523":0.005667787722302494,"524":-0.015408217106795111,"525":0.008498540421044276,"526":-0.00661407415687114,"527":-0.0049322388251058,"528":-0.001478675868088903,"529":-0.009236169556139014,"530":-0.018922439310755813,"531":-0.02523215835273385,"532":0.003386419539786585,"533":0.012308836327238273,"534":-0.011355195229413254,"535":-0.01025896350789545,"536":0.0033269815854801827,"537":-0.010958793588459534,"538":-0.0018120937547625347,"539":0.012460637598902941,"540":-0.0018201150515707702,"541":0.013941612314403872,"542":-0.017638329277005947,"543":-0.003297633834542058,"544":0.008498218961117784,"545":0.003034786571353911,"546":-0.004531329681507482,"547":-0.0030730598787361337,"548":0.015551221711887959,"549":0.005152093490077795,"550":-0.0020439807196760643,"551":0.005585454032445243,"552":0.004340917414918613,"553":-0.0005695094376308064,"554":-0.0032039382474084175,"555":0.006459748679990457,"556":-0.008078199252259234,"557":-0.018173786752988523,"558":-0.0028028938681813635,"559":0.009624958001462736,"560":0.012013797042769196,"561":-0.0004571944165533462,"562":-0.013781365382551083,"563":0.024215428102207556,"564":0.009292177186089984,"565":0.0004888710160068094,"566":-0.008156502669291483,"567":0.0005565030225968139,"568":-0.006493318926464212,"569":-0.010915802660862358,"570":0.005410319584076933,"571":0.00834440122091294,"572":0.007809267217249732,"573":-0.007050323795266331,"574":0.002439181454145106,"575":0.010057295598515753,"576":-0.00216050585884624,"577":0.020735531278751516,"578":-0.001072564521513553,"579":0.016947353222931883,"580":-0.0008967224840852361,"581":-0.0091568287388931,"582":0.004720427995355848,"583":-0.005376943964349563,"584":0.021737988419276905,"585":-0.00010728863010388001,"586":-0.015670952631794518,"587":0.0018252787862473468,"588":-0.007764194987812427,"589":-0.003207097277445373,"590":-0.0010553804422684025,"591":-0.00404170148852357,"592":0.009994922416819945,"593":-0.00802742144553796,"594":-0.012589116307197626,"595":-0.011093093405132357,"596":-0.007023002690973907,"597":0.015594024359930073,"598":-0.004590280561170134,"599":0.00089736979279086,"600":0.0002485785312903926,"601":-0.002234017471068044,"602":0.0059563754353261725,"603":-0.01507828751993087,"604":-0.00354924771512895,"605":-0.012938909525091883,"606":0.007496646587591113,"607":0.008685681573755894,"608":-0.0029161598576887817,"609":-0.007215317700403627,"610":-0.0008516830930928793,"611":-0.009157775046785136,"612":-0.021445303774315427,"613":0.01078148284599803,"614":-0.002073824611572423,"615":0.007051847726629265,"616":-0.009354334338922219,"617":-0.00041138616891670703,"618":-0.011376921036597721,"619":0.011957719469899387,"620":0.006368647889072528,"621":0.01509255192441597,"622":0.0014038209088086749,"623":-0.011923081221327698,"624":0.007500291165649666,"625":0.005759308933263672,"626":0.022995900265800322,"627":-0.015288054761669745,"628":0.017917547489911555,"629":-0.029146098617024614,"630":-0.005554157438472453,"631":-0.008166517295911651,"632":0.005087513853359414,"633":-0.0081103684264985,"634":0.008227426032405354,"635":0.000951243273693824,"636":0.005335119273161133,"637":-0.0009830518785578454,"638":0.012214223838228146,"639":-0.0019154617043889261,"640":-0.003943547750842016,"641":-0.011067751542895642,"642":-0.00472403086103995,"643":0.012499835659094616,"644":0.004763973925751947,"645":0.027867586708361355,"646":0.005691780743567595,"647":-0.018178141300328604,"648":0.01650136262048214,"649":-0.020442969658863705,"650":-0.021230307749513504,"651":0.003069523119920258,"652":0.00443574705798675,"653":-0.0014862383009672134,"654":-0.0031748632631586294,"655":0.0035906422570496457,"656":0.013800224418525246,"657":-0.016469763847478534,"658":-0.01468500249002065,"659":0.01853666330729718,"660":0.008720445503715974,"661":-0.0039321065701387005,"662":0.001921907831124698,"663":0.01208293101470907,"664":0.014086099657335436,"665":-0.004998035140919599,"666":0.0016953959650334916,"667":-0.0020506118775491574,"668":0.0046833067396037,"669":-0.00879847290643449,"670":-0.022753215208756804,"671":-0.0000879122060781308,"672":-0.02327816205057692,"673":-0.011310265675028871,"674":0.013216463711905511,"675":0.0029243100846330257,"676":-0.005749829896807614,"677":0.00969853399735897,"678":0.011901968232738066,"679":0.013362546531499096,"680":0.015222528551261891,"681":0.012614502810513208,"682":-0.01547437131877788,"683":0.0025416573685884225,"684":0.0008612827997577869,"685":0.0021260635563478667,"686":-0.004973802470215481,"687":0.013885566971719686,"688":0.025851078014823343,"689":0.0013808135150964835,"690":0.003753043214640333,"691":0.011348465266964106,"692":0.02230913655379935,"693":0.01584264946677733,"694":0.008860509994504374,"695":-0.0006182637366660893,"696":-0.0091265877015838,"697":0.004680124637450235,"698":-0.014923891675079525,"699":0.000013603411431217217,"700":-0.0036820931012838125,"701":0.0028986582758191177,"702":0.0007104420013727897,"703":0.00940084651431444,"704":-0.012079083628431932,"705":-0.0038167134663695044,"706":0.01718500705940979,"707":0.0010691606480703049,"708":-0.0004401121487715356,"709":-0.007492207284069158,"710":-0.004622545231720664,"711":-0.0005587567565804511,"712":0.013605331446456485,"713":0.011557974668305751,"714":0.02228246368855561,"715":-0.0029292831683347567,"716":-0.00008638023716822356,"717":-0.006409782841867337,"718":0.01763541043026415,"719":-0.023157932235770343,"720":-0.006288332625815934,"721":-0.001325472425329575,"722":-0.007726753707819517,"723":-0.0011517105930770365,"724":0.006918943970180524,"725":0.013520529550545803,"726":0.004093984332582429,"727":-0.013666005830388368,"728":-0.003704539553388962,"729":-0.019161984973924146,"730":0.0005494422885948294,"731":0.0031097471623729657,"732":0.007004489039945213,"733":-0.006149890553613805,"734":-0.0019520854319206296,"735":0.010033863597563206,"736":0.031013893937164423,"737":-0.0009718974781184508,"738":-0.017077816376422267,"739":-0.01582476778246201,"740":0.002788158762860714,"741":-0.008168324855948783,"742":-0.00018175054883624872,"743":0.0017192843161308177,"744":0.013286767890196845,"745":-0.0008492854721399466,"746":-0.002948554555903009,"747":-0.0008588187625912691,"748":0.005303716973938144,"749":-0.019922222607984076,"750":-0.004094537787935717,"751":-0.0014513266186214327,"752":-0.001380762100904073,"753":-0.0014839054662699118,"754":0.027138780687188238,"755":-0.0007666078372555481,"756":0.000707213805980014,"757":-0.010267956789026911,"758":-0.012541636812186533,"759":0.015596988908275749,"760":-0.009846350120862506,"761":0.005619584232322935,"762":0.012160339562481654,"763":0.0013551966848422063,"764":-0.010466605586286357,"765":0.009876267126105964,"766":0.03223171978955649,"767":0.01731579443312956,"768":-0.009963735055399586,"769":0.009634442095822818,"770":-0.023398630210710637,"771":0.010843832427886443,"772":-0.011267888119068797,"773":-0.0009175718116569061,"774":-0.004650776541220841,"775":0.007087024438519695,"776":0.0009678718845251716,"777":-0.007930818331871176,"778":-0.014873952684775845,"779":-0.0005759780577156882,"780":-0.004086765880624362,"781":0.016720154265113616,"782":0.012589354976418905,"783":0.010879712996548907,"784":-0.0128428925233919,"785":-0.010237532331255832,"786":-0.005600468968083879,"787":-0.03259538423229155,"788":-0.001951521042011925,"789":0.00046232735942084433,"790":-0.0045563641534546884,"791":0.01485869652337827,"792":-0.004811094997066174,"793":-0.008029557608702532,"794":0.0002344597368643479,"795":-0.0003690507158010871,"796":0.0006023361066596286,"797":-0.014977203200622647,"798":0.008327763479961921,"799":-0.000732020693176945,"800":0.00005786215918976292,"801":0.01584572254957631,"802":-0.013502581215483126,"803":-0.006112137570729255,"804":0.0023558809049571182,"805":0.00434045009990635,"806":-0.0076563291114416015,"807":0.005569552056590774,"808":0.002775259120024607,"809":-0.00696083924300933,"810":0.023600799265781455,"811":-0.002570536799898721,"812":0.03134436089025453,"813":-0.03430287943760424,"814":-0.011558924768489603,"815":0.005461407638196044,"816":0.002886294518818747,"817":0.01895233071453978,"818":-0.01386948309701007,"819":0.014615249983997415,"820":-0.0029645964485144364,"821":0.0006342076703634377,"822":0.028150672675547727,"823":0.004898088636444054,"824":-0.004936160530039401,"825":-0.014793852811055776,"826":-0.014613447194958487,"827":-0.02511065576265646,"828":-0.00012331574350533391,"829":0.009455607454058577,"830":-0.005581698343784873,"831":0.0024870975143486867,"832":0.007067973839608225,"833":0.005303860006218633,"834":-0.005194244814723016,"835":-0.009139857378706708,"836":0.004026414285009576,"837":0.01711493235234485,"838":0.00403283127210314,"839":0.01494473926282496,"840":-0.00548603128228885,"841":0.02226850982075025,"842":-0.006484319799903793,"843":0.017509583045267146,"844":-0.012337260205975953,"845":0.006539531378630396,"846":0.006995357096494219,"847":0.007871334523752228,"848":-0.02132288347661508,"849":0.003680523317994653,"850":0.01454310332608661,"851":0.014919526427478593,"852":0.011834298948676786,"853":0.006399466338917457,"854":0.001402036030313648,"855":-0.007532228231267273,"856":0.00416488565119155,"857":0.021559291291415567,"858":-0.007394145631027766,"859":0.011364612973373255,"860":0.016389179304845517,"861":-0.019082536805266285,"862":0.000878596976260306,"863":-0.0010025085695164575,"864":-0.006934415780206518,"865":0.005005445410081199,"866":0.009392630371535527,"867":0.020084298684572576,"868":0.011328801476667942,"869":-0.00538693294338549,"870":0.015115352640877145,"871":-0.006081294957330303,"872":-0.019186263675332122,"873":0.010438970560736742,"874":-0.017735787671586574,"875":-0.010138228726111151,"876":-0.0010047346345268542,"877":0.009605421308633033,"878":0.0025116174622154784,"879":-0.01747804932280965,"880":0.0012459955457909606,"881":-0.010874568645737654,"882":0.0009326315427548152,"883":0.004244752402121895,"884":-0.006268077316528249,"885":-0.0005553702563598968,"886":-0.0037978546836098023,"887":-0.002156168872175322,"888":0.001250531723000385,"889":0.009731506293370717,"890":-0.02622102240429932,"891":-0.01082594615256918,"892":0.0006353584459488148,"893":0.03047372418500186,"894":-0.005475345414459552,"895":0.019327933016517505,"896":-0.018177086732310964,"897":0.0026455791043719125,"898":-0.0009131486646744558,"899":0.01878712322299135,"900":-0.00015047766471413529,"901":-0.01888933781498121,"902":-0.030489319304680983,"903":-0.004667948005041345,"904":0.005842498798755316,"905":0.009025742539515609,"906":-0.0062739147921774315,"907":-0.0036272839743539966,"908":0.00637957802551484,"909":0.004908822240816399,"910":-0.010809021769623235,"911":-0.009701142359217778,"912":-0.01503394049984225,"913":-0.012573731153452323,"914":0.0004473547296877881,"915":0.01226629085706002,"916":0.004587246185093023,"917":-0.00039842543476612685,"918":0.003572533358206649,"919":0.014112087903044695,"920":0.010002560323261694,"921":0.0001318029732405138,"922":-0.030823442264224808,"923":0.0037720687625074846,"924":0.0035888212941017424,"925":0.014605950856303677,"926":-0.010299005443958942,"927":0.00572850681243337,"928":-0.00019905634210504964,"929":0.007689345469247936,"930":0.002734915780523469,"931":0.012999293573432264,"932":-0.0014189411982912922,"933":-0.014225829400403695,"934":0.03229183717127428,"935":-0.007986708345011197,"936":0.00921684620811902,"937":0.010154080761922904,"938":0.006510400693067779,"939":-0.0012242651849110335,"940":-0.026124606800384552,"941":0.0007487776236694072,"942":0.006415624214110787,"943":-0.0055508465664274404,"944":-0.008806812370475666,"945":0.0006092732367042972,"946":-0.023086198242398093,"947":0.010445981306854587,"948":-0.006164532636962181,"949":-0.006304200592170848,"950":0.004399026350939122,"951":-0.01593797732259277,"952":-0.00011798469146697789,"953":0.018511961692769426,"954":0.0015366619855828978,"955":-0.017658202585196375,"956":-0.027908558809498593,"957":-0.006729546089387151,"958":-0.006152252406941275,"959":-0.011226585096385909,"960":0.005708651525733015,"961":-0.03101178419885696,"962":-0.026124195740054174,"963":-0.01982721463723212,"964":0.00952322568672456,"965":-0.006576829561506546,"966":0.019523632913882313,"967":-0.005637339909537077,"968":0.003488731452137833,"969":-0.008841193555714597,"970":0.004492607406398678,"971":0.02030624181998623,"972":-0.006216691151815818,"973":0.0209294742079089,"974":-0.0018063900894182586,"975":-0.00938695761348413,"976":-0.004912811243558975,"977":-0.002613245159452968,"978":0.010544495115893778,"979":-0.022692083448330944,"980":0.0010852484496647631,"981":-0.008226567154315667,"982":-0.002048991852702957,"983":-0.02220648262501885,"984":0.004931529497748668,"985":-0.005039664162248898,"986":0.0002018045179338183,"987":-0.00296092478759831,"988":0.006171250365560014,"989":0.024402321882219573,"990":-0.009760158147373717,"991":-0.0015766763577809261,"992":0.00927930836950832,"993":-0.009013991383481912,"994":-0.017051371397503623,"995":0.009866576007673572,"996":0.015390791304803973,"997":-0.00714264504689787,"998":-0.009029767687569717,"999":-0.009862941851034113,"1000":0.009468185473618662,"1001":0.01205272745794621,"1002":0.0013217010386860886,"1003":0.007523532373462763,"1004":-0.02057838741880332,"1005":0.007556748848332529,"1006":-0.0040089191844376966,"1007":-0.004477865299304478,"1008":0.007675195037819454,"1009":-0.006020660032965251,"1010":-0.0024995888586796166,"1011":0.00258761062496629,"1012":0.0012582576475181676,"1013":0.0071189320278409,"1014":0.0014808842804003017,"1015":-0.008666521631271967,"1016":-0.018475872077158003,"1017":-0.001214192164406968,"1018":0.018747499410272116,"1019":0.0064506706638326385,"1020":0.009464598837589967,"1021":-0.0054401181001597215,"1022":0.0038819250696123823,"1023":0.004204856722051837,"1024":-0.0064374409753781316,"1025":0.008774475897727596,"1026":-0.0034076774034962802,"1027":0.011914093577004698,"1028":-0.007224820366147607,"1029":0.0007504362344454787,"1030":-0.01008738235553238,"1031":0.011899410141296056,"1032":-0.011764219279115057,"1033":-0.008904988969220057,"1034":-0.00785484137161173,"1035":0.006978011090094865,"1036":-0.0026547521087375305,"1037":0.005587717094403999,"1038":0.00252398358712349,"1039":0.015192260473754823,"1040":-0.0029158418308584846,"1041":0.00025305784033279635,"1042":-0.005616462162810189,"1043":-0.018009264276596562,"1044":-0.015512029315213333,"1045":-0.0018868510099241229,"1046":-0.02104514292743149,"1047":0.008867355247177333,"1048":-0.00018827212434360916,"1049":-0.016098103054030154,"1050":0.0045224800763588365,"1051":0.01137189644675752,"1052":-0.009741737578773908,"1053":-0.009212968522123723,"1054":-0.01948703571247188,"1055":0.015663330862107055,"1056":-0.0036473625693384474,"1057":-0.0007154255335041277,"1058":0.02793824576130117,"1059":-0.0001394190973711205,"1060":-0.015586580058217841,"1061":0.007945888198580569,"1062":0.01529389431786335,"1063":-0.008258800715419533,"1064":0.00003974297559348945,"1065":0.00005945121016471778,"1066":-0.0031435592455634873,"1067":-0.00312175562637207,"1068":-0.004741756889389161,"1069":-0.019871310359822397,"1070":0.0014743957318952032,"1071":0.016098383105301494,"1072":0.0013859470628504948,"1073":-0.011524524005880353,"1074":-0.01314054810904142,"1075":-0.01198798275323283,"1076":0.0016651683943104789,"1077":0.006205660483938086,"1078":-0.005701930772226337,"1079":-0.00807330358361493,"1080":-0.01896484924311589,"1081":-0.006723765334190223,"1082":-0.0015698229367771485,"1083":-0.014537917883788,"1084":-0.008020372511731528,"1085":0.009688207147630403,"1086":-0.00013438722810247606,"1087":-0.002651466168543701,"1088":-0.018210829647064816,"1089":-0.0007635390567302667,"1090":0.008023136050457812,"1091":-0.0015924788481218467,"1092":-0.002486680078625962,"1093":-0.006608744942188011,"1094":-0.024000718745362772,"1095":0.0067989432251204735,"1096":0.00014706421115500204,"1097":0.025241470696985045,"1098":-0.011702694882533162,"1099":0.006080634868016719,"1100":0.016266834309092804,"1101":-0.012533744006001445,"1102":0.0009407223806912715,"1103":-0.0066302093010836,"1104":-0.013521051133182888,"1105":0.011153427761364777,"1106":-0.00262431590069662,"1107":0.016615615728601773,"1108":0.0034521630424556326,"1109":-0.003705900539081735,"1110":0.01196989789356612,"1111":0.005829646633282011,"1112":-0.003045571636448752,"1113":-0.020620006974202253,"1114":0.023041968014177065,"1115":0.000566329101630162,"1116":-0.029271954329563123,"1117":0.00818258082965564,"1118":0.023348685235582985,"1119":-0.007518263694012368,"1120":0.01494413102974473,"1121":-0.010574875254209193,"1122":0.005749729768566447,"1123":0.002287058456892746,"1124":-0.014002753378344484,"1125":-0.009873540728036591,"1126":-0.001409090716263926,"1127":-0.00936354843933056,"1128":-0.012556673983591752,"1129":-0.0022039459645776982,"1130":0.012260722939344906,"1131":-0.0007174999039429747,"1132":-0.0012316511142434975,"1133":0.017620463859094403,"1134":0.0034278892150632415,"1135":0.001678099665549919,"1136":0.002270658595305271,"1137":0.008534934006289217,"1138":-0.013561607963336796,"1139":-0.0028060178615588816,"1140":-0.004142407089344368,"1141":0.004943889805656857,"1142":0.011257368379156765,"1143":0.0017184499633135172,"1144":-0.021369441582484064,"1145":0.00529781039786587,"1146":-0.013352364673192703,"1147":-0.004074820065189901,"1148":0.011654215143286684,"1149":-0.015886668231706178,"1150":0.010121373299911413,"1151":-0.007093144984730186,"1152":0.025041127765575048,"1153":-0.007424810946241744,"1154":0.012877759754895593,"1155":-0.007070936244698349,"1156":-0.015106145690034134,"1157":-0.014606534633728602,"1158":-0.006296390631348577,"1159":-0.0013388712301339778,"1160":0.0327392649565533,"1161":0.010426110577522693,"1162":-0.003930740787011501,"1163":-0.0183660979357021,"1164":0.004264195315957434,"1165":0.01311009742280769,"1166":0.010721734534027924,"1167":0.014404805816960707,"1168":-0.0057264473089539,"1169":-0.0004087925997637923,"1170":-0.0021664438664841432,"1171":-0.04367813156203022,"1172":-0.013031107498029763,"1173":-0.0057962404712557074,"1174":0.007422359358884184,"1175":0.014489577155654194,"1176":0.02144844078914772,"1177":0.00871142626694718,"1178":-0.0034735648320559716,"1179":-0.014920095152854423,"1180":0.0026599529010653366,"1181":0.0037432652447294277,"1182":0.011007258974878482,"1183":-0.006343863129838493,"1184":-0.009458315133411966,"1185":0.009058913580807872,"1186":0.009112831750891715,"1187":0.0028898103607256967,"1188":-0.007674485430818538,"1189":-0.007863332317445177,"1190":0.000344630420364546,"1191":0.011859712969895929,"1192":-0.016371708944152477,"1193":0.010512707810523146,"1194":0.005751830235168946,"1195":-0.021695272676351327,"1196":-0.014686517421141881,"1197":0.008363658301111507,"1198":-0.025779308756714272,"1199":0.005638741361381534,"1200":0.003657836421466826,"1201":-0.00012725346645974713,"1202":-0.004917195090371252,"1203":-0.020067592423113307,"1204":0.009714958616328507,"1205":-0.009244326431195478,"1206":-0.005307347248412259,"1207":0.00934550340937323,"1208":0.004188679128608285,"1209":-0.0072634809217749985,"1210":-0.02321914288961492,"1211":0.01965992671756261,"1212":0.013768294887188535,"1213":-0.0006582066857191815,"1214":0.007963223866313865,"1215":0.005427579530210439,"1216":0.005553424242646866,"1217":-0.016743179122476623,"1218":-0.0038988116402127464,"1219":0.007015531697256175,"1220":-0.004415258948345398,"1221":-0.013722921174571174,"1222":-0.011702885398676605,"1223":-0.014752954752253175,"1224":0.004477874100580435,"1225":0.00293560464654678,"1226":0.0039976101835991745,"1227":0.0071760535961096494,"1228":0.00038094819320391645,"1229":-0.002450268838094811,"1230":-0.002428801203038543,"1231":0.005480578679244784,"1232":0.011077476485826902,"1233":-0.004204948430987377,"1234":0.024981515964850525,"1235":-0.0005867239960411061,"1236":-0.012807820640768222,"1237":0.003000443989517565,"1238":-0.014127904672403718,"1239":-0.003480513595652956,"1240":-0.017577414354100977,"1241":-0.007681710727186288,"1242":0.0054641400017371,"1243":-0.018717936331573315,"1244":0.0008919850629027172,"1245":0.01064116594915092,"1246":0.01326534008249221,"1247":-0.0036815234589342096,"1248":-0.009012329284661051,"1249":0.007581824079757992,"1250":-0.010482811989109737,"1251":0.003053952108856824,"1252":0.00004439044531166113,"1253":-0.017902999487478647,"1254":-0.003665900666309835,"1255":0.014432244634119889,"1256":0.01495208480696355,"1257":0.012081295110889189,"1258":0.010175037424235997,"1259":-0.014744125286942243,"1260":0.0009107534998131819,"1261":0.006755325948925003,"1262":0.004859662659848403,"1263":0.0038710913048259064,"1264":0.0052228938684529295,"1265":0.00809348531982271,"1266":0.007858151994031259,"1267":-0.024187541615555433,"1268":0.02235896084908209,"1269":0.023159670912134406,"1270":-0.009891976295567189,"1271":-0.012495126463688711,"1272":-0.007485687014149569,"1273":-0.006211921377798118,"1274":-0.0016960617979681297,"1275":0.013017676970696071,"1276":-0.01573890000857591,"1277":-0.006000419153938212,"1278":-0.0128052039280994,"1279":0.004884299746295093,"1280":-0.013718158465952354,"1281":-0.0040948139399308425,"1282":-0.0021330300435836265,"1283":0.018886685703807044,"1284":0.027807021890686744,"1285":0.020321754140442207,"1286":-0.009661955594222128,"1287":0.011314972291586923,"1288":0.011043364871969089,"1289":-0.003005725866288231,"1290":0.005790152837583567,"1291":-0.0014349245594443435,"1292":-0.001599172869980053,"1293":-0.0036798091448839347,"1294":0.012178083040330974,"1295":-0.015786518702197612,"1296":0.013109747311589868,"1297":0.0040975612351458095,"1298":-0.017517004392947188,"1299":0.016198960224140815,"1300":0.013140432695795451,"1301":-0.010235092629568043,"1302":0.002969107719906522,"1303":0.007986109990616802,"1304":0.0006419391198822581,"1305":0.015692059774390976,"1306":0.011719485301137278,"1307":0.0104373135924861,"1308":0.0045297035839579,"1309":0.008311477571116046,"1310":-0.005966464618518138,"1311":-0.01218947972186466,"1312":-0.0018757760556263943,"1313":0.007150786585231616,"1314":0.014988614653764158,"1315":-0.01362182025963913,"1316":0.001634733927197036,"1317":0.001798300320990996,"1318":-0.007467787282950007,"1319":-0.010024788323046633,"1320":-0.018011981875919163,"1321":-0.01856987503441045,"1322":0.014748008399425484,"1323":0.007154787774428253,"1324":-0.0097984527147524,"1325":-0.0070074138579205945,"1326":0.004384603248676017,"1327":-0.013267186508035851,"1328":-0.009565634408424391,"1329":0.00793086653226402,"1330":-0.007028570688155579,"1331":-0.0012167074640202925,"1332":-0.002895909862342661,"1333":-0.010847874903202291,"1334":-0.006631602893479106,"1335":-0.012596981385977406,"1336":0.007989047153705566,"1337":-0.006348038924891797,"1338":0.021925781559390407,"1339":0.01281868960350206,"1340":-0.028278754814032362,"1341":0.008190924263101425,"1342":0.00976706055964404,"1343":0.012696346351246411,"1344":0.004306832475701824,"1345":-0.0004580474885994852,"1346":-0.0019969760410420653,"1347":-0.0020471267754942346,"1348":-0.017690733083057037,"1349":0.0049963919540176325,"1350":-0.007647205889377115,"1351":0.005705104457998916,"1352":0.00023102511118808377,"1353":-0.005665665020897504,"1354":-0.02688272688574335,"1355":0.0012105119940666693,"1356":-0.006423690852606865,"1357":-0.008201903329740306,"1358":0.00812400793183128,"1359":0.02241003419784348,"1360":0.0011942119607623433,"1361":-0.005050731921747024,"1362":0.02204611980721619,"1363":0.004736186149460087,"1364":-0.01422518077128871,"1365":-0.00013102066193165608,"1366":0.021269217949260226,"1367":-0.004455266242344569,"1368":0.001815511224529353,"1369":0.00803287510308048,"1370":-0.021559690701309406,"1371":-0.002240316098566401,"1372":0.011077207774569872,"1373":-0.014958627786749237,"1374":-0.00121443243726208,"1375":0.02300455573732503,"1376":-0.0009193152830101609,"1377":0.0019279188482626863,"1378":-0.021915023156767882,"1379":-0.021728468692091593,"1380":-0.005520350259193973,"1381":0.011088101788826318,"1382":-0.0009023327477093854,"1383":0.003129718973058792,"1384":0.0008441082672737347,"1385":0.0046607110557199015,"1386":0.003677822829074881,"1387":-0.030601769089616128,"1388":0.00836102264237421,"1389":-0.01661769029897577,"1390":0.0002027694075859645,"1391":-0.013050092259487485,"1392":-0.018461337682036585,"1393":0.010423433545279921,"1394":0.002006519569388739,"1395":0.010356850848900106,"1396":0.008105945812506796,"1397":0.01220570435604276,"1398":0.00030070449888135875,"1399":-0.009251848361808243,"1400":0.007730321326032386,"1401":0.01265731489736628,"1402":0.018709990088747165,"1403":0.0001297789959920635,"1404":-0.011993627176820806,"1405":0.026014680240903195,"1406":-0.023131395217997036,"1407":-0.0017261262646332016,"1408":-0.0026319773547703288,"1409":0.015103559753456354,"1410":0.0020000725649028266,"1411":-0.0032318456438779355,"1412":0.015392202906125385,"1413":-0.03049090886046421,"1414":0.014962258657101431,"1415":-0.018541958166646097,"1416":0.008899662358201698,"1417":0.006325758191654085,"1418":-0.006731775909127172,"1419":-0.005700406683946482,"1420":0.010192998806079786,"1421":0.014772023091426495,"1422":0.0013797869439030055,"1423":0.0011336556900851927,"1424":0.002231312368333147,"1425":0.006064074207547393,"1426":0.00876079348397347,"1427":0.019009829661274253,"1428":0.003792116769727216,"1429":0.033898670974381165,"1430":-0.02681956805923978,"1431":-0.0010851429191786359,"1432":0.004609746993127264,"1433":-0.020238435429651022,"1434":-0.014398996676996147,"1435":0.00393056663737175,"1436":-0.024676827240159526,"1437":0.0019959384564719887,"1438":-0.01937120207377191,"1439":-0.016252046329821218,"1440":0.0008834502141609482,"1441":0.02091332899084222,"1442":0.0008454554173495137,"1443":-0.0002991952612487109,"1444":-0.019454525591427418,"1445":-0.007788503910468578,"1446":0.012528794843246193,"1447":-0.00042217851087256907,"1448":-0.0018892413378766263,"1449":0.0025224535917478877,"1450":0.02033259592281246,"1451":0.0029672246350489137,"1452":-0.009597098509918158,"1453":-0.0019666855337777426,"1454":-0.017091196143904676,"1455":-0.009751381504868617,"1456":-0.001122168727909191,"1457":0.011560290017946003,"1458":0.02799069089684285,"1459":-0.008103431192887131,"1460":-0.004865607541578986,"1461":-0.00887769203962031,"1462":-0.014790755717078764,"1463":0.0016094332462985228,"1464":0.008062346745750222,"1465":-0.006558405086569191,"1466":-0.008507503093328027,"1467":0.00013535406559307396,"1468":-0.005271416163028988,"1469":-0.006381281496141416,"1470":-0.0012101670150105436,"1471":0.014035897454623074,"1472":-0.019393763055096436,"1473":0.020648471670353306,"1474":0.009919269011040748,"1475":-0.004544681763734839,"1476":-0.004715250705614888,"1477":-0.005386736795335978,"1478":0.007756288508076607,"1479":-0.014112122226214253,"1480":0.002851223715566289,"1481":0.009968631085478833,"1482":0.0010533398708776058,"1483":0.012040262310830984,"1484":-0.00042054196705873243,"1485":0.0019572969412739124,"1486":-0.002456206889087095,"1487":0.013951732311542035,"1488":-0.008848617203040638,"1489":0.010221345197070913,"1490":-0.032955342497945954,"1491":0.006497815128304491,"1492":0.00650784368877877,"1493":-0.001576885545271719,"1494":0.010072727257989052,"1495":0.012273638641120162,"1496":0.010433834229893083,"1497":0.009966988961502504,"1498":0.009937531640572001,"1499":0.0004037598919078552,"1500":-0.01421369229652753,"1501":-0.0169441825809444,"1502":-0.002625805818983293,"1503":0.008098554874215288,"1504":0.017579581657812295,"1505":-0.008439675825396273,"1506":-0.005097742394313605,"1507":0.0033507961069667645,"1508":0.001734016223353592,"1509":-0.004920448409958907,"1510":-0.008197817239898205,"1511":0.017250571335261537,"1512":0.004447906654143379,"1513":-0.012000390289340536,"1514":-0.005095178988464534,"1515":-0.007065758690501676,"1516":-0.007811398452514715,"1517":0.013958858061416049,"1518":0.007654625609086753,"1519":0.004815566329418772,"1520":-0.0020951933272141195,"1521":-0.004300166833931017,"1522":-0.001617163025249535,"1523":-0.012161429725617243,"1524":-0.0075448743575009265,"1525":0.016214479755016567,"1526":0.009088028723221122,"1527":0.015007457344098998,"1528":0.03717450507675664,"1529":0.002865745045842878,"1530":-0.0049756523109313455,"1531":0.01704276437668803,"1532":-0.0018765857067979475,"1533":-0.014121520163510372,"1534":-0.010662254850931018,"1535":-0.013970439660515943,"1536":0.012428993301107097,"1537":-0.0244715763882835,"1538":-0.009618899568303372,"1539":0.007616014253542115,"1540":0.02897169099495701,"1541":-0.008570947351934938,"1542":-0.012341049343122747,"1543":-0.007528441486458185,"1544":-0.0008779285010172564,"1545":0.010352604170777895,"1546":-0.020372442229522027,"1547":-0.018493330111539964,"1548":-0.006858536028346039,"1549":0.00609802910848254,"1550":0.004812552994135,"1551":0.0037628973259837915,"1552":-0.016629783427400256,"1553":-0.004421183566594431,"1554":-0.00761213583271759,"1555":-0.012084569380561969,"1556":-0.003422917153698959,"1557":0.00042882637980084403,"1558":-0.002075666444741181,"1559":-0.0023490489899622167,"1560":-0.0033251337418278783,"1561":0.012034131236672971,"1562":-0.015393041885495045,"1563":0.0011729979488041332,"1564":0.009650472540945754,"1565":0.0015513420751801727,"1566":-0.010982630714708157,"1567":0.0031392024978856487,"1568":-0.0050138115702122645,"1569":-0.0020056915592884094,"1570":-0.016983465960428025,"1571":0.008443871643979394,"1572":-0.011761304344883641,"1573":0.004780995694201942,"1574":-0.01729201083615993,"1575":-0.007257663260325711,"1576":-0.0016545876268019447,"1577":0.004309212264370127,"1578":-0.0082099395552217,"1579":-0.004186841245500349,"1580":0.007380115241106301,"1581":0.006310935493193919,"1582":-0.02133112201848026,"1583":-0.0035523044588628523,"1584":0.0009719359500573135,"1585":-0.013438073319102016,"1586":-0.006471391279394284,"1587":0.0006896902564130754,"1588":0.0033620918749099437,"1589":0.011548533666110831,"1590":0.0060931737068622895,"1591":0.010398692454949099,"1592":0.0011929162279697557,"1593":-0.008252756313370972,"1594":-0.0008748741937364964,"1595":0.0020494253822499957,"1596":0.005050769183871726,"1597":0.004343135829976042,"1598":0.0017531815454702021,"1599":-0.007359539317972871,"1600":0.013603323953566676,"1601":0.008378303679971482,"1602":-0.00467121870890511,"1603":-0.014908120076842607,"1604":-0.018401880975925145,"1605":0.01442293913496242,"1606":0.0050234785098253855,"1607":-0.008010129841895995,"1608":-0.01059659826864424,"1609":0.012020443022703893,"1610":-0.010453425776624038,"1611":-0.002909560109049208,"1612":-0.008401592844655244,"1613":0.012010247646353424,"1614":0.003131914791151992,"1615":0.01717168798277134,"1616":-0.005570783739821314,"1617":-0.04028329804107801,"1618":-0.010889217123590372,"1619":-0.00493826947555833,"1620":0.01303047296041223,"1621":-0.017260589475206697,"1622":-0.004194370240184966,"1623":0.0248360106944709,"1624":-0.007941388567814543,"1625":-0.018095537679162714,"1626":0.007802088566332286,"1627":-0.013857154540150435,"1628":0.010564361679891525,"1629":0.017930313964756545,"1630":-0.012424866989280503,"1631":0.009178424359485918,"1632":0.022431391462193494,"1633":0.003630958269144642,"1634":-0.0009282890413520647,"1635":0.00436112916146009,"1636":0.004658501815793539,"1637":0.0026708437765538286,"1638":0.0035538812379203527,"1639":-0.008364686226988511,"1640":-0.002883983721003087,"1641":0.011998422972941078,"1642":0.006983394705620021,"1643":0.0013622622334097877,"1644":0.019627288636744573,"1645":0.008367965152435916,"1646":-0.011536101405568683,"1647":-0.012073304804587423,"1648":0.027156349409719043,"1649":0.0018843580432500121,"1650":-0.0042501894371402196,"1651":-0.00554109732417024,"1652":0.009465300547526655,"1653":-0.020466850401723552,"1654":0.012615315561978842,"1655":-0.023673364111217805,"1656":-0.0014069316826190615,"1657":0.013099690802074038,"1658":-0.007794469821741201,"1659":-0.010852063558867048,"1660":-0.003772601428629024,"1661":0.01967873204857191,"1662":0.0036501625799063154,"1663":-0.003711496315136847,"1664":-0.024751999205972,"1665":0.013281402735745344,"1666":-0.002108097268664323,"1667":-0.008848535924559383,"1668":-0.008842121078296707,"1669":-0.001276322549293737,"1670":-0.0003404386019764398,"1671":0.018352728782885182,"1672":0.00744209016330669,"1673":0.020331268036366316,"1674":0.003034416843197294,"1675":0.004677917121387778,"1676":0.0011826000200403247,"1677":0.015247009198589475,"1678":-0.008411082693983449,"1679":0.021105509503266378,"1680":-0.005538084375653028,"1681":0.01310257829932098,"1682":0.006478542569541179,"1683":-0.00432586072479603,"1684":-0.008750097066472768,"1685":0.017438192987741786,"1686":0.005759984458012387,"1687":0.001229904806732533,"1688":0.0023495540227956055,"1689":0.0018847634153506794,"1690":0.013465410793705538,"1691":-0.010232057141179092,"1692":0.0028725797546005055,"1693":-0.00774465888364589,"1694":0.004872982733270997,"1695":-0.03298606900207363,"1696":0.002582713095585448,"1697":-0.005114696343010718,"1698":0.002288406807535099,"1699":-0.007999118323992823,"1700":-0.0014690561669925357,"1701":0.0315084822808965,"1702":-0.007221199167076204,"1703":0.0032299151771521244,"1704":-0.010477130396595853,"1705":0.001568104785551863,"1706":-0.020614646319595146,"1707":-0.011457905415477745,"1708":-0.0022078429069095416,"1709":0.024792943850619364,"1710":0.0021853079674431994,"1711":-0.010128708492024768,"1712":0.02653539562326602,"1713":0.01892162117119743,"1714":0.012498408404537892,"1715":-0.021500012109615177,"1716":-0.030698200636075427,"1717":0.018949365397946092,"1718":0.0014031868368594353,"1719":-0.005839161471767202,"1720":-0.008078441178900251,"1721":0.015421893769158998,"1722":-0.01535672432951578,"1723":-0.017856261316949253,"1724":-0.017230487373838956,"1725":0.010376073649234098,"1726":0.012630829097495652,"1727":0.0012603416196731577,"1728":0.01705925866011319,"1729":0.0015401691409972229,"1730":0.024838831616349203,"1731":-0.00129613737885362,"1732":0.012036511848928602,"1733":0.002751535811116312,"1734":-0.021436195070434157,"1735":0.0019344376520370407,"1736":-0.032514677554713635,"1737":0.0019437498263678663,"1738":-0.006274471544506455,"1739":0.010995326241168737,"1740":0.0036464236839240604,"1741":0.01925422354816719,"1742":-0.0010316834322197893,"1743":0.004291264306537889,"1744":-0.004748883901121071,"1745":0.0019237493985721143,"1746":0.009745620787186719,"1747":0.016691217282269445,"1748":-0.012400505453603673,"1749":0.010650078137704569,"1750":-0.0069140345727605485,"1751":0.011688496438117393,"1752":0.03304385889078577,"1753":0.019823650622366285,"1754":0.02776656845573765,"1755":-0.007072062993517493,"1756":-0.003383263804894833,"1757":0.011090627469580111,"1758":-0.023816917485048134,"1759":0.0003179957269992086,"1760":0.026466303164494134,"1761":-0.00029473285906734707,"1762":-0.0008780659388145565,"1763":0.0042752544275703385,"1764":0.020035427117024156,"1765":-0.022646315168988653,"1766":0.02929106749422737,"1767":-0.022832731941573987,"1768":0.018598916876222383,"1769":0.005518524384835661,"1770":-0.009317724711339771,"1771":-0.0005126978921699385,"1772":0.011348984621773275,"1773":0.0047042960100402665,"1774":-0.00907001387680313,"1775":-0.005447973931455421,"1776":0.010135029686791159,"1777":0.02483940120632998,"1778":0.003336660792477644,"1779":-0.012826114308604177,"1780":-0.0066092840955281375,"1781":0.00007375475033666404,"1782":0.018136288098174788,"1783":-0.005375715359481373,"1784":0.0012553439893446846,"1785":0.007943452997371397,"1786":-0.01035804466012132,"1787":-0.010687594920550146,"1788":0.0017771521097769243,"1789":0.011251222332499648,"1790":-0.005725874786511236,"1791":-0.013812648235848077,"1792":0.002365262416821176,"1793":-0.0014338754446999104,"1794":0.0002333231222416521,"1795":0.014223192383737465,"1796":0.00765195635284817,"1797":0.0009995802733766426,"1798":0.01845861837704876,"1799":0.00441065278256818,"1800":-0.007692481934249572,"1801":0.010648571099560446,"1802":0.005076028673793492,"1803":-0.021491218520118722,"1804":-0.00536943956523271,"1805":-0.000497890294127555,"1806":-0.016225052749190276,"1807":-0.025366673762251903,"1808":-0.0012806983899620867,"1809":-0.00644914863223662,"1810":-0.02573724463596154,"1811":-0.013656484216082558,"1812":0.005085842895484276,"1813":0.00037546811677654894,"1814":-0.0007151908170022996,"1815":-0.004096854455984395,"1816":0.008270874790682932,"1817":-0.016437113377917714,"1818":0.02053058434845709,"1819":-0.010274284503469207,"1820":0.010030831857410905,"1821":0.008296592428294692,"1822":-0.0019035307942869058,"1823":0.009173875102567054,"1824":0.009853626637652681,"1825":-0.0010789327019057556,"1826":-0.018601838950384298,"1827":-0.0024920285205174233,"1828":0.00200671833451685,"1829":-0.0006304135220384305,"1830":0.008916207893646102,"1831":-0.0025815205648366244,"1832":-0.00259179660917571,"1833":-0.00558961257063755,"1834":0.0048286393563732755,"1835":0.0014226225755794406,"1836":-0.026244113246206558,"1837":0.0034787473956147327,"1838":0.027176867484945574,"1839":-0.019876037120630408,"1840":-0.007038093103450821,"1841":-0.003379843599879513,"1842":-0.007294295102282645,"1843":0.01266665548709008,"1844":0.0013541474698788847,"1845":-0.006624078036352419,"1846":-0.015519598298011122,"1847":0.011205750687090694,"1848":-0.005298710706128094,"1849":-0.011294705203994023,"1850":-0.0029916331950690976,"1851":-0.001720689665898458,"1852":0.0020853260230425863,"1853":-0.00005986954423833928,"1854":-0.002374595545897429,"1855":0.0012299282860012766,"1856":-0.005486579079235908,"1857":0.004249319079767515,"1858":0.021146499241990527,"1859":-0.008264140433397365,"1860":0.00785088896981021,"1861":-0.022940825317105118,"1862":0.012646538379489923,"1863":0.006462027490583771,"1864":0.018422370023741714,"1865":0.022604271722968344,"1866":0.0264326371263513,"1867":0.002907905927881568,"1868":0.01161568427353951,"1869":-0.004808995231935463,"1870":0.00947644412815177,"1871":0.021838683432345886,"1872":-0.011363537148247008,"1873":-0.0040734143584060115,"1874":-0.010978670022505372,"1875":0.0033839686124740183,"1876":-0.021595879902301156,"1877":-0.002716458924421213,"1878":-0.011859708658186887,"1879":0.009631124646516583,"1880":0.009976476485245852,"1881":-0.0002454291570781333,"1882":0.03560976677283872,"1883":0.004159259443590282,"1884":-0.006820482797295261,"1885":0.005609345478340606,"1886":0.009158510489662446,"1887":0.000018171517343012287,"1888":0.007414214189407889,"1889":0.017303157413147478,"1890":0.0004263206901359897,"1891":-0.0039050433105523924,"1892":0.011043252971800248,"1893":-0.012481806505883864,"1894":0.009707855337815827,"1895":0.008102719260571713,"1896":-0.011310932097814112,"1897":-0.011588429157671354,"1898":0.019666070524822377,"1899":0.0010897883663119558,"1900":-0.006606296449028554,"1901":0.011777758718809466,"1902":-0.01021088640032214,"1903":0.011574643468365812,"1904":0.010398826848611865,"1905":-0.006814616225330774,"1906":-0.013861650106986369,"1907":0.006033077943315903,"1908":-0.01062347495934635,"1909":-0.0001349663741088334,"1910":-0.009331041721369634,"1911":0.024292709115422514,"1912":0.013776447120546417,"1913":0.007871234245799663,"1914":-0.006439218277502481,"1915":-0.009722954712562093,"1916":-0.01763563552804439,"1917":0.002743850245931479,"1918":-0.0015785439515248604,"1919":0.023942212521241464,"1920":0.0035214399693658215,"1921":-0.022843707644038622,"1922":-0.02094896680051648,"1923":-0.0002904160865663556,"1924":0.001069173805772745,"1925":-0.0061126800741514225,"1926":-0.0032696794532106137,"1927":0.0029518219396779096,"1928":0.002080664611430632,"1929":-0.0009414347872027165,"1930":-0.005530138404297693,"1931":0.008213811213753875,"1932":-0.0269511198077773,"1933":-0.007861519280963222,"1934":0.0016979555673840502,"1935":-0.005199656007150007,"1936":0.02773618459973354,"1937":-0.015922435503691226,"1938":0.024300413259122078,"1939":-0.020949617905852685,"1940":-0.015325712906803068,"1941":0.017629894661555585,"1942":-0.015105843413218254,"1943":-0.024981456644578636,"1944":-0.0021380564872143853,"1945":0.005747203398625209,"1946":-0.016349108868395985,"1947":0.011498844907264433,"1948":0.006079919370721859,"1949":0.010851375129931905,"1950":-0.013620722600997382,"1951":0.0023623282882783733,"1952":-0.009190205522007742,"1953":-0.009366384427648384,"1954":0.008875907298447842,"1955":0.007372192224855936,"1956":-0.00439149481864227,"1957":0.017605275610577422,"1958":-0.008927698590152425,"1959":0.0037140425212983286,"1960":0.009072584681153004,"1961":0.010785278716148835,"1962":0.0009232398105006143,"1963":-0.00952458637003496,"1964":-0.014308731184114352,"1965":0.0045842748537265,"1966":0.014164341109313952,"1967":0.0049864558305340746,"1968":-0.008908478329937968,"1969":0.013907762636469524,"1970":-0.023767675529638065,"1971":0.019577541180443893,"1972":0.006601675810018617,"1973":0.0009267655973155712,"1974":0.017374606083534843,"1975":-0.0036106403197314783,"1976":-0.011518901314513705,"1977":-0.028495581281891693,"1978":-0.004009809972056151,"1979":-0.004711268856551445,"1980":0.002712575878266065,"1981":0.014125609641860683,"1982":-0.017379144182407782,"1983":-0.011333722909324192,"1984":0.018980168669064598,"1985":-0.005192743563735213,"1986":-0.004250204213454838,"1987":-0.013872325199527847,"1988":-0.017676359833959505,"1989":0.018144401337095543,"1990":0.009732846396299788,"1991":-0.0076925126696023765,"1992":-0.011725572890353999,"1993":0.016103376142074508,"1994":-0.02490498703723293,"1995":-0.005374789598171265,"1996":-0.011116884497811223,"1997":-0.0018090313866072863,"1998":0.01723735181323089,"1999":0.021000579444398877,"2000":-0.007877074331290859,"2001":0.0049391498665555325,"2002":-0.0013474573228500696,"2003":0.01640793701020396,"2004":-0.010449641026182807,"2005":-0.003959041465608593,"2006":0.008156754297922801,"2007":0.00660409636578022,"2008":0.003028565503750802,"2009":0.010615357440701587,"2010":-0.0025507529168723253,"2011":0.017910398882805628,"2012":0.023631724733102252,"2013":0.00909226523886753,"2014":-0.006620986237852479,"2015":0.0005712131001094522,"2016":-0.002654536082845867,"2017":-0.014725289164078054,"2018":-0.01870967667591926,"2019":0.008654937707834199,"2020":0.008033173175761087,"2021":0.014509337995766265,"2022":-0.013181146023480375,"2023":-0.0011767883323964966,"2024":-0.01461675898630821,"2025":0.016764284058780003,"2026":0.011229906715570193,"2027":-0.011501040198152514,"2028":0.005276869016143909,"2029":-0.00585551070817814,"2030":0.009255684357857119,"2031":-0.025586725162117994,"2032":0.016916199789696475,"2033":0.0035346914813428497,"2034":-0.00006226556246520716,"2035":-0.009448207140314375,"2036":-0.002090895940295813,"2037":-0.0019164624022747052,"2038":-0.007507180671771474,"2039":0.000766477668955612,"2040":0.012378484327525748,"2041":-0.015218333490531434,"2042":0.01685907746174423,"2043":0.006779435388887648,"2044":-0.022083750000622158,"2045":0.004089091384085201,"2046":0.011454715009055354,"2047":0.00042175452290512137,"2048":-0.002046789780086808,"2049":0.018036412282263853,"2050":-0.019902688629169864,"2051":0.001968875569781609,"2052":0.002270446045329517,"2053":0.01404604389040818,"2054":-0.01652661743707742,"2055":-0.009788748115489746,"2056":-0.0208425985221986,"2057":0.004861682994412431,"2058":-0.009546855362247348,"2059":-0.018722450793538733,"2060":-0.02458132205886886,"2061":-0.015485165287828853,"2062":0.0025417833710297683,"2063":0.006016809547490955,"2064":-0.00961621076530685,"2065":-0.003701592355358151,"2066":-0.009442267195668033,"2067":-0.014810928437490465,"2068":-0.010824169707966024,"2069":0.005773688843479104,"2070":-0.004855928808434253,"2071":-0.029929473188677988,"2072":0.005486742228663459,"2073":0.007416125597233044,"2074":-0.018032242709876738,"2075":0.01705065200510374,"2076":0.0016973562137192607,"2077":0.00011068484194856863,"2078":-0.004065660307396394,"2079":-0.003988925237939268,"2080":-0.007415706444012574,"2081":0.0014825388489131226,"2082":-0.02807987552107671,"2083":0.012492689971208365,"2084":-0.0013090694400817746,"2085":-0.0042830891658231255,"2086":0.00019591959823899596,"2087":0.0006723704043895375,"2088":0.021670520406290424,"2089":0.009348506287928703,"2090":-0.015958514750581708,"2091":-0.004416873324924348,"2092":-0.004661577434300209,"2093":0.004752651075458583,"2094":-0.001301545569736792,"2095":0.023975643726696798,"2096":-0.0018753407527487688,"2097":-0.0005055722309733102,"2098":0.00028290551886743346,"2099":-0.010080644828053237,"2100":-0.005458528154389416,"2101":0.003957973621224159,"2102":-0.003278533193315959,"2103":0.003994019174472717,"2104":-0.020037638390913947,"2105":0.009728410425202942,"2106":0.01624573266782797,"2107":-0.00015660884977483508,"2108":0.0011328149577846853,"2109":0.017216969395626936,"2110":-0.014499836936596677,"2111":-0.011866031932882652,"2112":-0.009915439036540854,"2113":0.002531635158412124,"2114":0.002774922912922932,"2115":0.00806939624190056,"2116":-0.024205538909406667,"2117":0.009498824299461037,"2118":0.023620374932440503,"2119":-0.004519946198692792,"2120":0.0009106355145949597,"2121":0.02461143318581975,"2122":-0.01218141392243204,"2123":0.0260705227654534,"2124":0.019268380411693983,"2125":0.0020993266309362623,"2126":-0.01774343968575196,"2127":-0.0017031361003907453,"2128":0.025464233440483375,"2129":-0.004691966093108023,"2130":0.002414921044645708,"2131":0.003977970592592309,"2132":-0.015546731994370455,"2133":-0.00010659338958209697,"2134":0.014368431168690124,"2135":0.0018907769228439983,"2136":0.021695587360056494,"2137":-0.012641098118435532,"2138":0.0014027460475798284,"2139":-0.015715597628697238,"2140":0.019280612768105065,"2141":0.013485708876900716,"2142":0.01803103372598961,"2143":0.0017870146544492424,"2144":0.004208805100274469,"2145":0.004956473833553814,"2146":-0.02162942448174093,"2147":0.0006309082033481633,"2148":0.018852773144399978,"2149":0.006387208324548615,"2150":-0.0017069221001507055,"2151":0.0003351896619341142,"2152":0.001060953320836913,"2153":0.01765888070974973,"2154":-0.006100253324536513,"2155":-0.007257478274571812,"2156":-0.007485433881987094,"2157":-0.0005442533992776324,"2158":-0.01573402781435998,"2159":0.01330667666160208,"2160":-0.014913061718140523,"2161":-0.003061697698625751,"2162":-0.0005622614904032353,"2163":-0.005625339499588124,"2164":-0.0028966609533602433,"2165":-0.0127402815814618,"2166":-0.002120624118437316,"2167":-0.02140305636866435,"2168":-0.009144532727398465,"2169":-0.0029113735998260726,"2170":-0.005464089505127326,"2171":-0.006133442676016909,"2172":0.002556264394716103,"2173":-0.0006552249167872552,"2174":-0.008857350150404222,"2175":0.03156031071910831,"2176":-0.008881732355179656,"2177":0.007269069662904528,"2178":0.006991957301268741,"2179":-0.02429214105053728,"2180":-0.005126661736600236,"2181":-0.01209882267686633,"2182":-0.016633753668878377,"2183":0.01174129354691715,"2184":0.011658869135008403,"2185":0.03766482771210968,"2186":-0.004373028119359742,"2187":-0.006002154890012103,"2188":-0.00765078964522246,"2189":-0.0022259096255773984,"2190":0.00288302597571318,"2191":-0.00624562539676277,"2192":0.013130270407071834,"2193":0.01589618401682355,"2194":-0.018068885799546668,"2195":-0.01701336817188664,"2196":0.017374657350883546,"2197":0.012721575679270038,"2198":0.00357376857063518,"2199":-0.013861454364721292,"2200":0.02215519861639069,"2201":-0.003146354637076377,"2202":-0.007834928331272207,"2203":-0.017297723230229035,"2204":-0.006031826724844941,"2205":-0.0035302139719576653,"2206":-0.013057921789229047,"2207":-0.008495069539673173,"2208":0.0054149936524519274,"2209":0.005852765148952098,"2210":0.012808651322807637,"2211":-0.007379071037953075,"2212":0.008734413954804121,"2213":0.004991370277181041,"2214":0.006037493971589248,"2215":0.005669270806217046,"2216":-0.002866617322764272,"2217":-0.014079422948098193,"2218":0.025856184912938646,"2219":-0.010474156034070578,"2220":0.006614338168215235,"2221":-0.014340792363481429,"2222":-0.01037470659100781,"2223":-0.004264809251183581,"2224":0.007385624430267471,"2225":0.0173382683877857,"2226":0.01026765535107573,"2227":-0.006191148414048349,"2228":-0.007205754419771333,"2229":0.03255775697800223,"2230":0.014362288732312017,"2231":-0.002698991591217559,"2232":-0.01031095367307174,"2233":-0.015707541992752226,"2234":0.007280803687468981,"2235":-0.0033650744042294663,"2236":0.015465928931446134,"2237":-0.007460607245272844,"2238":0.009022905882111902,"2239":0.015511260599104692,"2240":-0.013850172545452788,"2241":0.004610237917050421,"2242":-0.01201320076453092,"2243":-0.018967422122206642,"2244":-0.004586145811256175,"2245":-0.01433963295889727,"2246":-0.007709897969979067,"2247":0.0011288237772090846,"2248":0.004579400723031203,"2249":-0.006802418982137269,"2250":-0.004038171921424236,"2251":0.012029432268241727,"2252":0.02506175744384853,"2253":-0.006877921511180639,"2254":-0.004974744158116068,"2255":-0.0038540590215111973,"2256":-0.011073663318101156,"2257":0.013318083982148031,"2258":0.011487919197011049,"2259":-0.011007779517850539,"2260":-0.017028995910593252,"2261":-0.005032271152626254,"2262":-0.0060276290261042096,"2263":0.018538215055317744,"2264":0.004038112206105169,"2265":0.0032575687751454697,"2266":0.00999691168100571,"2267":-0.009619658103640792,"2268":0.009272562917287982,"2269":0.012344962460172335,"2270":-0.0028341305008575835,"2271":0.0036844422073623326,"2272":-0.009466385122729385,"2273":0.00206075492421301,"2274":0.007863882249937637,"2275":-0.015406321276132558,"2276":0.003274383480388091,"2277":-0.030558276535088497,"2278":-0.002724179919198572,"2279":-0.004109837698297836,"2280":0.018778833595020642,"2281":-0.0015313437497046782,"2282":0.020424349005705392,"2283":0.0018021821208989643,"2284":0.008917708408045096,"2285":-0.014262284479422755,"2286":0.004894206643245087,"2287":0.0036484263339560718,"2288":-0.006377756860680412,"2289":0.01337317139812828,"2290":-0.0001862695095788874,"2291":-0.03077279384407029,"2292":-0.014952943362776945,"2293":-0.00659545287309638,"2294":0.0030244849932659643,"2295":-0.021042660363384338,"2296":-0.0009511229577923197,"2297":-0.010144585003708155,"2298":0.033150843421645045,"2299":0.008974596729435446,"2300":0.002137257923420306,"2301":-0.007005371802899289,"2302":-0.0005917669431693233,"2303":0.0016345775639359935,"2304":-0.006404145805656831,"2305":0.004982518940709956,"2306":-0.009783853461014444,"2307":-0.01974080569414549,"2308":0.0048266722505127865,"2309":-0.020915626558561728,"2310":-0.011406521258757971,"2311":0.017848999519850594,"2312":0.003916938636464478,"2313":0.0038233225870865683,"2314":0.0138776661527714,"2315":-0.005108894012871084,"2316":-0.011907348727710121,"2317":0.008174260721743055,"2318":0.0019486506102420812,"2319":-0.01670408940588942,"2320":0.0026263286189742883,"2321":-0.006793319433271759,"2322":-0.002020876778937674,"2323":0.007434283259845066,"2324":0.016947994275113187,"2325":-0.00021856186079689287,"2326":-0.011761779551823665,"2327":0.006357833974072874,"2328":-0.007353385695251862,"2329":0.007631529177866832,"2330":0.0012929711276381609,"2331":0.013682737423770797,"2332":-0.011718448749829186,"2333":0.0008732318996590346,"2334":0.01207231648539602,"2335":0.004125077529610165,"2336":-0.02242287266693073,"2337":-0.0031162213321730913,"2338":-0.005684255228769696,"2339":0.00016282377514611945,"2340":-0.011258122118117077,"2341":0.01082918811951373,"2342":0.01645274342509767,"2343":-0.017158525078347718,"2344":-0.009400458568985397,"2345":-0.01115226114068693,"2346":0.006912234606598917,"2347":0.007998894112461637,"2348":-0.017732552301892544,"2349":-0.004356647513957788,"2350":-0.011825465295469871,"2351":-0.0010437326147423763,"2352":0.025682783886314602,"2353":-0.018136260288838853,"2354":0.0000022412773881592174,"2355":0.005726235076915234,"2356":-0.010930317385300942,"2357":-0.002644746659977796,"2358":-0.0044433408537678225,"2359":0.009325879990993635,"2360":0.020339843513604287,"2361":0.005584715515484198,"2362":-0.008609252823252094,"2363":0.004762767095079607,"2364":0.020171961678704393,"2365":0.017606680119345294,"2366":-0.021678144912440994,"2367":-0.020982701662046067,"2368":-0.019879788582843446,"2369":-0.015342469833679902,"2370":-0.004996725204136619,"2371":-0.00973562392836317,"2372":0.010457724623417606,"2373":0.01673137766308712,"2374":0.0070130707184200836,"2375":-0.0036720451558895054,"2376":0.0005960015713221628,"2377":0.007888241866107636,"2378":-0.00898604215743136,"2379":0.0133440684486334,"2380":0.002895648334236611,"2381":-0.0014395539275740977,"2382":0.00573247197734067,"2383":0.020209762537816974,"2384":0.022216620463859645,"2385":0.011532491364742247,"2386":0.0005802027116998802,"2387":-0.0011551634165293562,"2388":-0.017270094648272748,"2389":0.0240965200719904,"2390":0.008012963122703396,"2391":0.009313174952894437,"2392":-0.010054229428984386,"2393":-0.005859375561477998,"2394":0.013492767604908158,"2395":-0.015062619080467705,"2396":-0.0035556117601458523,"2397":0.0025941984545852824,"2398":-0.010944362304525074,"2399":0.010885966227870419,"2400":0.0011769680665371278,"2401":0.0026531566780142366,"2402":-0.0035123080797938738,"2403":0.01192852113686631,"2404":-0.011520670769895833,"2405":-0.005583995653265095,"2406":-0.013871362411444028,"2407":-0.003936660129265173,"2408":-0.012336321945966374,"2409":-0.01665558063072962,"2410":0.015282846149214047,"2411":0.003301154797634859,"2412":-0.009160320787015385,"2413":0.00037441452489181637,"2414":-0.00044124675500057,"2415":0.003933243050851677,"2416":-0.020156361268270494,"2417":-0.008359775323395739,"2418":0.03548203621348752,"2419":0.015761161501271104,"2420":0.009335022899380766,"2421":-0.00023234327835983207,"2422":-0.011619218373661986,"2423":-0.004040007349763969,"2424":0.005938452742421534,"2425":0.0051731814511649515,"2426":-0.020702301117163778,"2427":-0.003341728519089179,"2428":0.0028251508217366004,"2429":0.005994120562469911,"2430":0.003890584306369921,"2431":-0.014845435445188874,"2432":-0.009817983815509461,"2433":0.01452046047224622,"2434":0.014410805893837706,"2435":0.01131677196376448,"2436":-0.010748949376502469,"2437":0.0065411621614672845,"2438":0.007959334645826566,"2439":0.006840598278185594,"2440":0.0029163421272832605,"2441":-0.002737766852135808,"2442":-0.0004529494199914548,"2443":0.018687508920131875,"2444":0.00138260882154502,"2445":-0.006153195954940294,"2446":-0.009417770169832421,"2447":0.0024185254195145237,"2448":0.0024348909942035666,"2449":0.006159623740147368,"2450":-0.005582381933950173,"2451":-0.02000379289790539,"2452":-0.0032342639508364896,"2453":0.011870511738076484,"2454":0.006965776504709612,"2455":0.011931973376329135,"2456":0.0042720115191411,"2457":-0.012013335907811657,"2458":-0.005486417315172808,"2459":-0.012304897186524439,"2460":-0.012923150280722677,"2461":0.00010537172655293486,"2462":0.018269899448570867,"2463":0.006240894376468656,"2464":0.012874300354683565,"2465":-0.006761447117701087,"2466":0.014246238542596015,"2467":0.0035458141498813903,"2468":0.004934575846077126,"2469":-0.002583353120138367,"2470":0.0019266684628702953,"2471":-0.01393317870825961,"2472":-0.011968568209074045,"2473":-0.003907821829724895,"2474":-0.005410351957801702,"2475":0.01932311164123237,"2476":-0.01402494172439641,"2477":-0.01287359005132279,"2478":-0.0029210261841460953,"2479":0.00776279720149092,"2480":0.0055398676165768716,"2481":-0.01803946935186432,"2482":-0.0029579643454685596,"2483":0.001115276440190501,"2484":0.0012384770183132866,"2485":0.009335577638939397,"2486":-0.005059470181273372,"2487":-0.03240424049180981,"2488":0.008729543863865928,"2489":0.021865121131261902,"2490":-0.007256534064919516,"2491":0.02053687515805035,"2492":-0.012314138004079052,"2493":0.0026674704664869328,"2494":0.0046244758633551,"2495":0.017802816593655093,"2496":0.013997605233221045,"2497":-0.0029465221075870253,"2498":0.001666155342415589,"2499":0.0016940776054448004,"2500":-0.005810764450610466,"2501":0.003208119713726657,"2502":0.0008372553067949822,"2503":-0.0004014594287231049,"2504":0.022460834795854093,"2505":-0.03054437206238671,"2506":-0.019430842883857984,"2507":-0.009593270831197643,"2508":0.010501889150114092,"2509":-0.01627560272254714,"2510":-0.004156815499208158,"2511":-0.018766268112745663,"2512":0.004205642760022178,"2513":0.019749534841015447,"2514":-0.011898563256192537,"2515":0.008479336390258134,"2516":-0.019458252260542465,"2517":-0.015295697463503758,"2518":0.015996162071536563,"2519":-0.009286624158771274,"2520":-0.027011336091527526,"2521":-0.0019367516174381063,"2522":-0.009872169370047822,"2523":-0.003124043847094024,"2524":-0.00007323214530574448,"2525":-0.0037827851841103883,"2526":-0.008466482396524231,"2527":-0.018175193829268257,"2528":-0.003958015264465563,"2529":0.013821280482709336,"2530":0.020411227700219064,"2531":0.004542158240931262,"2532":-0.0029391164352720145,"2533":-0.013576593717467998,"2534":-0.005239759128980938,"2535":-0.006024787987925475,"2536":0.004018027910408862,"2537":0.014578194248119862,"2538":-0.021941551262317678,"2539":0.002442246602707614,"2540":0.007196469214084933,"2541":0.022354684020876116,"2542":0.01948395109326196,"2543":0.008048516786389558,"2544":-0.009543170734064915,"2545":0.00621619599727494,"2546":-0.002803904175426964,"2547":-0.009700222658208107,"2548":-0.01758717211898574,"2549":0.0058877910047383875,"2550":-0.013245099039807928,"2551":-0.008569833566960668,"2552":0.009362949152209473,"2553":-0.0027029268036963417,"2554":-0.011764059374841316,"2555":-0.005981526407528876,"2556":0.007459900218979179,"2557":-0.001279345797327042,"2558":0.007569999063740099,"2559":-0.014452518179847216,"2560":-0.0018764884663424015,"2561":-0.009539581891303448,"2562":0.0028612588477147432,"2563":0.0023630493332841224,"2564":-0.010536220592788343,"2565":-0.01074402022413948,"2566":0.011418013499304188,"2567":0.0045174332947116955,"2568":-0.006194175281962278,"2569":0.004529257796310417,"2570":0.0031288286230509565,"2571":-0.013246169199895148,"2572":-0.0016792686581484097,"2573":0.02053955719013452,"2574":-0.012811741933265272,"2575":0.001185581290651067,"2576":0.012359750483279872,"2577":0.008557580887218206,"2578":0.0032230436448807518,"2579":-0.0052134271179704724,"2580":0.006953808188945228,"2581":-0.009871763624022558,"2582":-0.008117197974309712,"2583":0.016770999904261497,"2584":-0.015092613436565695,"2585":-0.012806832625347483,"2586":-0.005274229737520313,"2587":-0.003935685521234051,"2588":-0.006674296290236398,"2589":0.007736322111012365,"2590":-0.023769413315661823,"2591":-0.005327285948595279,"2592":-0.019578364024403917,"2593":-0.005831894279455737,"2594":0.011534183692373379,"2595":-0.002871519999140727,"2596":0.00960041349043731,"2597":0.012307035267072925,"2598":0.01094272869339996,"2599":-0.0004203603001607562,"2600":-0.001766838295594218,"2601":-0.016339910050626568,"2602":0.0071069431309620824,"2603":-0.017650937707280445,"2604":-0.006614565835407137,"2605":0.013220724596848992,"2606":0.007114853950204999,"2607":-0.0008432210482361406,"2608":0.003077998091484149,"2609":-0.012916699051499789,"2610":0.02198651659682965,"2611":0.009755821679112264,"2612":-0.02350989139816005,"2613":0.016498367563483336,"2614":-0.016153824151064075,"2615":-0.014835055215072675,"2616":0.0041544823840250185,"2617":-0.004117297642044304,"2618":0.0012314177739578616,"2619":0.013233346553898982,"2620":0.0017060583313623851,"2621":0.014233133461811797,"2622":-0.005332883453017001,"2623":0.003482962275282143,"2624":0.014041418821732559,"2625":-0.01195736808945023,"2626":0.008871354378137589,"2627":0.011714185303546756,"2628":0.010557371622504703,"2629":0.018663486098422916,"2630":0.02051226517210494,"2631":0.00988587362689712,"2632":-0.008333216285274512,"2633":-0.011931273824192146,"2634":0.0017169032022379513,"2635":0.007287812580463013,"2636":0.014010654792751641,"2637":-0.00046023505843493167,"2638":-0.027811560178605158,"2639":-0.007143641578026479,"2640":-0.0008446108264297355,"2641":-0.017879412372759033,"2642":0.011060261401581948,"2643":0.0035257349606433483,"2644":-0.0014860285490957493,"2645":0.01178186287292147,"2646":-0.010732115945479376,"2647":0.008791748011631448,"2648":-0.002294088411707217,"2649":-0.010027842455291104,"2650":0.00048302997080337963,"2651":0.014800295902201954,"2652":0.02030749005070543,"2653":0.005520989984443321,"2654":0.013925659514342811,"2655":-0.0038584552789903493,"2656":0.006596190918329626,"2657":-0.006085979629551477,"2658":0.0028745511591543077,"2659":0.011061790325887735,"2660":-0.00022555341989221545,"2661":0.011007455109103951,"2662":0.009502452603561347,"2663":0.0010322824808006125,"2664":0.016817955986850985,"2665":0.017332344090943433,"2666":-0.018716800883659904,"2667":0.00267972808145067,"2668":0.007344222061222481,"2669":0.008015554526621572,"2670":0.0008362221975855819,"2671":-0.01999674979957717,"2672":0.008426608340720463,"2673":-0.00956741415357201,"2674":-0.0006790039141084507,"2675":-0.001557565236199239,"2676":-0.01670534085362628,"2677":-0.0038721267766581276,"2678":-0.0014666876355784904,"2679":0.008534351188866116,"2680":0.012554093978311871,"2681":0.022202876704210263,"2682":0.018585378213089695,"2683":-0.000356065789856457,"2684":-0.0101301910013921,"2685":-0.007314885629528901,"2686":0.017304106371172936,"2687":-0.010583490548762509,"2688":-0.004899339113949637,"2689":0.0004516154364723152,"2690":0.007923657492832527,"2691":0.03125933625323127,"2692":0.001430592107233499,"2693":0.018913406309714595,"2694":-0.022542078923688626,"2695":-0.0060861108833718865,"2696":-0.014079966000560402,"2697":-0.018238878803941445,"2698":0.0009696384637747862,"2699":0.009693244602487345,"2700":0.0014071857891474354,"2701":-0.006103768758294032,"2702":-0.004950003382401844,"2703":0.012153845506092425,"2704":0.003497752073838711,"2705":-0.002702753363334217,"2706":0.006820509360337088,"2707":0.007383626656753419,"2708":-0.007006650189819369,"2709":-0.01781024602408898,"2710":0.011998029555197862,"2711":-0.006648741148641776,"2712":-0.008132178207327197,"2713":-0.014753847412722412,"2714":0.018576251122130478,"2715":0.011071554886086278,"2716":0.013643094754909301,"2717":-0.0012524545564651763,"2718":-0.00349273335689321,"2719":0.004692470255458066,"2720":0.008861311054308221,"2721":0.009177116005826942,"2722":0.005760012833487336,"2723":-0.009698548453709332,"2724":-0.0011223456873429211,"2725":0.027542819184162414,"2726":0.011518688862282954,"2727":-0.0009663146401918804,"2728":0.0058866511790112,"2729":0.02027814629052943,"2730":-0.001764947563511391,"2731":-0.004669822562341208,"2732":-0.023485545306596176,"2733":-0.00012923997696842965,"2734":0.01078283362044217,"2735":0.01718631174864932,"2736":0.012996308710721553,"2737":0.0007978430086558546,"2738":-0.01695237270018277,"2739":-0.006229340291710316,"2740":0.010580250672027633,"2741":-0.0003640910645777532,"2742":-0.012610378206498168,"2743":0.01974260168139611,"2744":0.0166225504011124,"2745":0.013675418570886654,"2746":-0.010775078517905505,"2747":-0.005674581862892811,"2748":-0.001600581744560133,"2749":0.001371634065215052,"2750":-0.001586000111499387,"2751":-0.030858136499597,"2752":-0.007132666152427813,"2753":0.01145588785538967,"2754":0.0031945910651536005,"2755":-0.007372928766154722,"2756":0.015666963619717502,"2757":0.010568606247846434,"2758":0.011436321025582402,"2759":0.011769343877246876,"2760":-0.012222627712463036,"2761":0.014926520665961477,"2762":0.0199972470306049,"2763":-0.016039902618006568,"2764":0.0018289461764236963,"2765":-0.002825189050665003,"2766":-0.01860541239466456,"2767":-0.02712237251897575,"2768":-0.0068360311845924076,"2769":0.005094356348267161,"2770":0.008568849949179877,"2771":-0.002434727120875248,"2772":-0.003826758371668383,"2773":0.0205326324873833,"2774":-0.017457793683592793,"2775":-0.006703466492147531,"2776":0.004431647101457361,"2777":-0.007143073041135434,"2778":0.014076438945746908,"2779":0.00553272264542399,"2780":0.0038885209112144233,"2781":-0.017998755523891127,"2782":0.0007316142103954827,"2783":0.0004326105488602986,"2784":-0.009322099928351724,"2785":-0.014160347026013011,"2786":-0.02578971539541914,"2787":-0.00009277340997454685,"2788":0.015937821677546572,"2789":0.024496489185083226,"2790":-0.01188980308723769,"2791":0.005035649526834612,"2792":0.017474205503797857,"2793":0.007039354739268931,"2794":-0.01001643811938786,"2795":-0.01833474314520068,"2796":0.005296241043931837,"2797":-0.01595255219684808,"2798":0.004375332417252198,"2799":0.015589504710520194,"2800":0.00413946007318631,"2801":0.008744328406126224,"2802":0.007435617584318424,"2803":0.0035249853060116453,"2804":-0.0004709786046132364,"2805":-0.011230337365134105,"2806":0.024952478713082846,"2807":0.007851079233720882,"2808":0.010100627313057794,"2809":0.0041566095626723535,"2810":-0.005503130542403029,"2811":-0.005221374900605197,"2812":-0.016912418054997966,"2813":0.0019209315221377686,"2814":0.016009712930632428,"2815":0.003015863224192876,"2816":-0.011001120305581941,"2817":0.011740527999214058,"2818":0.0015028701674482789,"2819":-0.011443676621186822,"2820":0.012712736213580395,"2821":-0.029217275129327907,"2822":-0.006919769701190978,"2823":-0.0008026390201812009,"2824":-0.010920863185343322,"2825":0.008713891952783354,"2826":-0.015085953397320644,"2827":0.018325606262733593,"2828":0.02635391448805911,"2829":0.010713424918587938,"2830":0.0055644525758917806,"2831":-0.0023373240428562476,"2832":-0.005291914380662234,"2833":0.003127724358815376,"2834":0.008910004545478698,"2835":0.011089704729628022,"2836":0.007070792765884473,"2837":0.006470241489224426,"2838":0.014341354803627204,"2839":0.0053633397635801175,"2840":0.0022003587062465234,"2841":0.0022260990677411665,"2842":0.005597815886338853,"2843":0.006014547076443544,"2844":0.0019362595210775798,"2845":-0.02184342644932986,"2846":-0.03643085995848189,"2847":0.010099132479444438,"2848":0.0006477758792670518,"2849":0.019905721846933715,"2850":0.014229025050904386,"2851":0.002410193345121229,"2852":0.028165135918377836,"2853":0.004273337478935891,"2854":-0.0020063051309245723,"2855":-0.0020530762337777992,"2856":-0.02644844659280656,"2857":-0.00952120927166978,"2858":-0.005830699985057118,"2859":0.01523602295688219,"2860":-0.0053704500221487365,"2861":0.015238172885843653,"2862":-0.002797897719712986,"2863":0.0069825319802722515,"2864":-0.014332577739360617,"2865":0.0022831404087710013,"2866":-0.01454765387167363,"2867":-0.004492944867388182,"2868":0.0022504126111175422,"2869":-0.010244229999695199,"2870":-0.019495718554424377,"2871":0.005601921414229213,"2872":-0.008360029139722034,"2873":0.003996284945711144,"2874":-0.0045476272595793114,"2875":-0.01805468265024847,"2876":-0.003087406978992009,"2877":-0.007861187965513857,"2878":0.011257914092003916,"2879":-0.0012226607199339948,"2880":-0.013505113904089035,"2881":0.0003891106787159992,"2882":-0.00041212080271842665,"2883":-0.0024475480871868774,"2884":-0.008750751864644435,"2885":-0.019179609228669257,"2886":-0.0028228892378852413,"2887":-0.01896705472415043,"2888":-0.016912462441152694,"2889":0.0189606548491413,"2890":0.00264063217612833,"2891":0.009788958601589239,"2892":0.0014144696226013526,"2893":0.012194373000644281,"2894":0.011582698396222875,"2895":0.01905845216880529,"2896":-0.005819404994709474,"2897":0.0072708573791778735,"2898":0.0016367086426445235,"2899":0.00753657138192424,"2900":0.00837410850853268,"2901":-0.005810751020694792,"2902":0.00022367907957548594,"2903":-0.0175847779806019,"2904":-0.003856444158647233,"2905":-0.01476933259365149,"2906":0.019312566952482572,"2907":-0.01022532858658505,"2908":0.004220169396221418,"2909":-0.014659212717777865,"2910":-0.0015885517539606345,"2911":-0.0028756982421561583,"2912":0.013297267533340235,"2913":-0.000459121222490751,"2914":0.009001849910824453,"2915":-0.011462899404197419,"2916":-0.001709619797184522,"2917":0.018840168720736718,"2918":-0.011690495333129559,"2919":0.004212652198359047,"2920":-0.003722143918468295,"2921":0.005959019147043707,"2922":-0.009998567508760322,"2923":0.009627099829484766,"2924":-0.01903422795458715,"2925":-0.02723180275870099,"2926":0.014683849988673553,"2927":-0.014687914589570831,"2928":0.002797373098987219,"2929":-0.0025994171890303657,"2930":-0.022827245904846024,"2931":0.0086729729177794,"2932":0.0026139298580376367,"2933":0.006235070169466659,"2934":0.012894676594655452,"2935":0.015508143952713745,"2936":-0.0017233010851884635,"2937":0.015298143772859096,"2938":0.013050818355696667,"2939":0.010787308616878839,"2940":-0.006878083316419011,"2941":-0.007989411280336207,"2942":-0.0035008920515576096,"2943":0.01581519286004517,"2944":-0.019197509840043838,"2945":0.01811281915323779,"2946":0.0027931096996265167,"2947":-0.016219677340140654,"2948":-0.010759770133598395,"2949":-0.008653864243196297,"2950":0.00018212030852283973,"2951":0.016729506530028013,"2952":-0.012463706397987474,"2953":0.003971635665292331,"2954":0.023740500087623684,"2955":0.0031905947395106642,"2956":-0.005840588048532154,"2957":0.0015977788341554203,"2958":-0.018564046967240785,"2959":0.022313324127403993,"2960":-0.004039616571726806,"2961":-0.005979057259606957,"2962":-0.005146892188015831,"2963":0.02444041471571992,"2964":-0.022384073332676915,"2965":-0.0025021041854065007,"2966":-0.010559079631413703,"2967":-0.02299676566079556,"2968":-0.004784837691071309,"2969":0.010459396143398475,"2970":0.02922311230167508,"2971":-0.008292502294974224,"2972":0.007823037749417396,"2973":-0.006877063721327201,"2974":-0.01215909495157655,"2975":-0.00979672725083332,"2976":-0.00026929742087906445,"2977":0.011513308712767381,"2978":-0.022633737743566487,"2979":0.01605161962268806,"2980":-0.026071156493036134,"2981":-0.0007045441132329262,"2982":-0.009827613599120004,"2983":-0.010669109964217213,"2984":-0.006866279949346857,"2985":-0.011740927140134298,"2986":-0.0069605228919537914,"2987":0.03830044993357927,"2988":-0.009147084436985697,"2989":-0.003626496706492077,"2990":0.0034749430879955183,"2991":0.0012563203706662531,"2992":-0.012620356311395934,"2993":-0.003039728434639576,"2994":-0.013515504576460243,"2995":-0.0010588396199801323,"2996":0.024463044447840344,"2997":0.0032462226000596586,"2998":0.02359342912630249,"2999":0.02575243396320143,"3000":-0.006822652045720834,"3001":-0.016919479263761097,"3002":-0.001727318246631366,"3003":0.0036504852387181483,"3004":0.004821659348257795,"3005":-0.005875634099186955,"3006":-0.005843047650050289,"3007":0.019384407966585627,"3008":-0.00625093665256088,"3009":-0.018802641735099473,"3010":0.009243370365573345,"3011":-0.01154275304350473,"3012":-0.009046808447352997,"3013":0.016534800971977154,"3014":-0.005206642013023629,"3015":-0.0014557957994674154,"3016":-0.005469423913802291,"3017":0.01287705217946063,"3018":0.02937317636456769,"3019":-0.007527539909789475,"3020":0.00881057742885537,"3021":0.007618544227481547,"3022":-0.005445445303293303,"3023":0.007945938312973553,"3024":0.0011236485862120083,"3025":-0.0037717684566515863,"3026":-0.001218847792368999,"3027":-0.009489347439127941,"3028":0.017056066399462992,"3029":-0.015465525151003742,"3030":-0.022182304342447553,"3031":0.012157983187977324,"3032":-0.004754388105279658,"3033":-0.00859008015059763,"3034":-0.005090221279580773,"3035":-0.020817105531777878,"3036":-0.0037380057454499613,"3037":0.0008059698060785668,"3038":-0.002890135034951302,"3039":0.014456402689071233,"3040":-0.0018953153879176694,"3041":0.01817320014764697,"3042":0.006431196774323667,"3043":0.003993815521796314,"3044":0.00035070707539563436,"3045":-0.010493756504860417,"3046":0.023321758641255557,"3047":-0.005246885177773715,"3048":-0.014065303972721337,"3049":-0.009707500578449596,"3050":0.016778970049150972,"3051":-0.012525692991446836,"3052":0.00023496455068541553,"3053":-0.0026246518972481863,"3054":-0.0012061159119194835,"3055":-0.020389530371186564,"3056":-0.004164753691773441,"3057":0.020209663826246078,"3058":-0.009091409111623563,"3059":0.005383938260889052,"3060":0.030341299838196036,"3061":-0.010830835829171088,"3062":0.007459023676134691,"3063":0.011788990904908253,"3064":0.0023976980862651094,"3065":-0.006859093558158749,"3066":-0.01954966671359396,"3067":-0.013274071109308963,"3068":-0.02391317591176746,"3069":0.0011755476907247013,"3070":-0.010128173802436871,"3071":-0.029326020194146388,"3072":-0.00756857456206996,"3073":0.0009891887570283322,"3074":-0.012323058841967325,"3075":0.012345405499312826,"3076":0.0023263517186818327,"3077":-0.0011170902739532395,"3078":-0.010128209177442022,"3079":0.03647895132549847,"3080":-0.003126125361536903,"3081":-0.012430374994078881,"3082":0.003986197705028792,"3083":0.002984872844178392,"3084":0.03249382433894456,"3085":0.007166271794551754,"3086":0.017026847460452185,"3087":0.002708168018062244,"3088":-0.018855252087597505,"3089":0.023971139926081575,"3090":-0.00874914438819824,"3091":-0.008925042074597331,"3092":-0.0037328456642094134,"3093":0.004293570522650814,"3094":-0.006330686224839045,"3095":0.0017682381209409063,"3096":0.021536184533519194,"3097":-0.0009392433376460929,"3098":-0.001572438835935043,"3099":-0.014009916692095368,"3100":0.004731424695371819,"3101":0.03144465552916993,"3102":0.0182896351144882,"3103":-0.02030747708138108,"3104":-0.01197291516484938,"3105":0.0023826340451060025,"3106":-0.015040338629133886,"3107":-0.004657818253710982,"3108":0.012632006899370076,"3109":0.0005437968991600347,"3110":-0.009447287053603213,"3111":-0.0078003760974859815,"3112":0.0068284830483921945,"3113":-0.013888207706503921,"3114":0.010851383244226584,"3115":-0.00014277811256323335,"3116":-0.011288017852801402,"3117":-0.007771092860170082,"3118":-0.007528011832440246,"3119":-0.01632317601850054,"3120":0.011116827865127374,"3121":-0.0047466080704482785,"3122":-0.012542121051531158,"3123":-0.01353001448737068,"3124":-0.026821703517725365,"3125":-0.011425147313663763,"3126":-0.007574386585337782,"3127":-0.010346162141401683,"3128":-0.003719296469229222,"3129":0.0049044075742768,"3130":0.002571035817870294,"3131":0.0023291524636071836,"3132":-0.0038990174524642443,"3133":0.0025388569618202263,"3134":0.0017548301603920332,"3135":-0.0017037679458809518,"3136":0.0031609944370780655,"3137":0.00432042877000662,"3138":-0.011535730327803207,"3139":-0.010300066981726648,"3140":0.00038163778799859605,"3141":-0.010951521563793436,"3142":0.0068947804818524526,"3143":0.009781328277888114,"3144":-0.012513186085229373,"3145":-0.01918288092900258,"3146":0.016738142085594897,"3147":0.009566048341012226,"3148":-0.014585606367683536,"3149":-0.0038973243294021867,"3150":0.01791911335966127,"3151":-0.0033372299394988686,"3152":0.013830232373831365,"3153":0.012907250941249,"3154":-0.007811929033566932,"3155":-0.02003815624450785,"3156":0.00494213059305704,"3157":-0.02494726271909952,"3158":0.024215058298258908,"3159":-0.002822856494368805,"3160":0.00376985203589516,"3161":0.003094209266688819,"3162":0.012005997986295787,"3163":-0.007988431829029207,"3164":-0.011335458162463752,"3165":-0.0031371417611603374,"3166":-0.009467499074020523,"3167":-0.0000799608177209048,"3168":0.006756521984201602,"3169":0.009893025689354195,"3170":0.015501648129428263,"3171":-0.010983591224940838,"3172":0.0053437246534971975,"3173":-0.0036669138152457237,"3174":0.0045624554185697145,"3175":0.0006978805218644886,"3176":-0.0024101179356132846,"3177":-0.02431413626848543,"3178":-0.005199657238542914,"3179":-0.014913688183707793,"3180":0.017045612389311033,"3181":-0.005075052740918761,"3182":-0.004233885049343916,"3183":-0.001499824395001391,"3184":0.0008569496414810156,"3185":0.012179667315052939,"3186":-0.0071076991196656215,"3187":-0.008123675731481289,"3188":0.0013794579515399898,"3189":-0.009665260574943036,"3190":-0.006535069606239677,"3191":-0.015418527731735049,"3192":0.0222163186680232,"3193":-0.0009986714893881043,"3194":0.0025822713754814156,"3195":-0.0019284714529405969,"3196":-0.0166676382169591,"3197":-0.005520026255285873,"3198":0.003791489584116267,"3199":-0.010978817059868654,"3200":-0.00591104895357872,"3201":0.01474146771177256,"3202":0.007772996907822362,"3203":-0.014671093607972939,"3204":-0.009356599553595715,"3205":-0.006319313152823205,"3206":-0.020818299554901547,"3207":0.009874576658542113,"3208":0.006757326318494495,"3209":-0.005624020527945723,"3210":0.008709930985195858,"3211":-0.012542341096453058,"3212":0.007850828522401564,"3213":0.0032020343717620216,"3214":-0.013332237655557215,"3215":-0.0062656679778952664,"3216":-0.0026868808537415527,"3217":0.014440368372653096,"3218":0.01681334470079766,"3219":-0.014835732328857872,"3220":0.009806044545187402,"3221":0.014170724297367114,"3222":-0.006715228399096432,"3223":0.0009638681780605104,"3224":-0.011694433679270054,"3225":0.0005270231668863994,"3226":-0.002299506359010181,"3227":-0.004760591278396653,"3228":-0.010585761420300951,"3229":-0.011184281684736046,"3230":0.008981945979477851,"3231":0.008351106769669173,"3232":0.017795049392734272,"3233":0.0021876207800185727,"3234":-0.006136254873571289,"3235":-0.012836935900814642,"3236":-0.008089063584700412,"3237":-0.013540366672084792,"3238":0.02054470364050373,"3239":0.0035576314506314648,"3240":0.005629994590590049,"3241":-0.020548591202851865,"3242":0.0066639904734920215,"3243":0.0049904345061898185,"3244":-0.012479065960428514,"3245":0.0052799064675312,"3246":0.011978743135836488,"3247":0.003645120237015546,"3248":0.00034757481712287497,"3249":0.024168509224868632,"3250":-0.01122345655803498,"3251":-0.0003796294530308018,"3252":0.017076909862804187,"3253":-0.005365594546738506,"3254":0.01570833524324427,"3255":0.008303864942469475,"3256":0.03201609776376695,"3257":-0.016390360792671775,"3258":0.014434365965742236,"3259":-0.011449674604149748,"3260":0.009879071160659376,"3261":0.016052167581511956,"3262":0.015429640612098934,"3263":-0.007788366343022664,"3264":-0.020750872753419736,"3265":0.015234186867402041,"3266":-0.013875124087429807,"3267":-0.0003878892135507432,"3268":0.007059989241406644,"3269":0.01896097522184745,"3270":0.002615317813682078,"3271":-0.0026461394957931947,"3272":-0.0120115122011252,"3273":-0.0013141216866251546,"3274":-0.013330306615076976,"3275":-0.00017581360538265227,"3276":0.0032263893143704603,"3277":-0.006299048635712567,"3278":0.0065575277573370365,"3279":0.00866984568303375,"3280":0.010885360961201483,"3281":-0.017770301039235336,"3282":-0.0002717820811605703,"3283":-0.0022483373892353818,"3284":0.012395331028728262,"3285":0.0014433702347536664,"3286":0.014843580048213475,"3287":-0.012847739429147296,"3288":-0.005998786140545091,"3289":0.006394799662540486,"3290":0.003150547860095115,"3291":0.005374136888110755,"3292":-0.024097862569419183,"3293":-0.015843486393741564,"3294":0.005669376977049416,"3295":-0.013799114520306015,"3296":-0.0022634309502497464,"3297":-0.011803145736649581,"3298":0.00004444128209296554,"3299":0.020566392755808627,"3300":-0.0038922284722308783,"3301":-0.021029331347033865,"3302":0.018989077005180384,"3303":0.01073802268688154,"3304":-0.007706545707999571,"3305":-0.02234812031623119,"3306":-0.010406029681667176,"3307":0.004056602046990966,"3308":0.018182989506067348,"3309":-0.00232211703624473,"3310":0.002083256935525929,"3311":-0.01351365997775142,"3312":0.015466385352106008,"3313":0.020481433131864662,"3314":0.006662870525560347,"3315":-0.010336993661248779,"3316":0.0005765656827851593,"3317":0.006511947760154854,"3318":-0.019060915812331155,"3319":-0.007896686905788243,"3320":-0.007993890260420994,"3321":-0.004058103632782169,"3322":-0.0068662987297592555,"3323":-0.004878539187475385,"3324":0.011473145533784607,"3325":0.019239126152480995,"3326":0.007280648818045661,"3327":-0.005453308386856096,"3328":-0.008863701237346887,"3329":0.000009798602899092414,"3330":-0.014780317409761521,"3331":0.00038695985101584127,"3332":-0.006093857815154998,"3333":0.008598974190459638,"3334":-0.012872470516505283,"3335":0.01924058413908019,"3336":-0.014041821813555368,"3337":-0.0021522758626820204,"3338":-0.014413569245070333,"3339":-0.009516855688354878,"3340":-0.00824293326923331,"3341":0.005597917924055225,"3342":0.011010487389239076,"3343":-0.002208353473994156,"3344":-0.0001767212845029146,"3345":0.004014621579616931,"3346":0.021669116793447248,"3347":-0.014196864531838879,"3348":-0.012523256005330658,"3349":-0.0001508002916088444,"3350":-0.009208686360297773,"3351":0.006138854848938,"3352":-0.015092144531336027,"3353":-0.006073817631365654,"3354":0.002396179454388622,"3355":0.020554521761104203,"3356":0.008989006455184488,"3357":0.004354367835923145,"3358":0.0010082144838825787,"3359":0.013791797973553276,"3360":-0.0015688878621505043,"3361":-0.029144589221284708,"3362":-0.015194016803397808,"3363":0.010594498570797207,"3364":-0.011085772938395418,"3365":0.007398572873534171,"3366":0.005198613694612653,"3367":0.007783178739299841,"3368":-0.011944814704941204,"3369":-0.012722662215340992,"3370":0.0051153911509562505,"3371":-0.0008471312751292585,"3372":0.007247436686017932,"3373":-0.002172522792357658,"3374":-0.014139072292988877,"3375":-0.0008818848427413623,"3376":0.006593044665578153,"3377":-0.0020080851046912537,"3378":-0.01629849682070504,"3379":-0.00283425045490161,"3380":0.007066659092413768,"3381":0.012642117206557673,"3382":0.011185547941207071,"3383":0.004683738387001511,"3384":-0.004564394154081705,"3385":0.006791777515187129,"3386":0.00958555612156107,"3387":0.019976126237238528,"3388":0.012706855757639123,"3389":0.0036215269197245473,"3390":0.009549665000145693,"3391":-0.010940536967548696,"3392":-0.018738155896706358,"3393":0.006130403293448516,"3394":0.009767531744598542,"3395":-0.0018919087567721847,"3396":0.00797743918784485,"3397":0.009859993079998432,"3398":0.010076430964660805,"3399":0.0061587388372903035,"3400":0.017306196942653836,"3401":-0.014998703659398213,"3402":-0.007468017866197127,"3403":-0.012796067512854531,"3404":0.01035082839345013,"3405":0.00950880136059181,"3406":-0.0038746558605006988,"3407":-0.01266161688867065,"3408":0.01032487767341377,"3409":-0.020114009910945408,"3410":0.0015640961723108633,"3411":0.013539338841233683,"3412":-0.004507475884165097,"3413":-0.003774597985619932,"3414":0.00821540815279166,"3415":0.009380913530681713,"3416":0.003743403380645913,"3417":-0.010833222489239899,"3418":0.006436637466257882,"3419":-0.009501195339855868,"3420":-0.0295926417797729,"3421":0.015330761502736672,"3422":-0.0016662195811292626,"3423":-0.005016640579355099,"3424":-0.0036764522014192257,"3425":-0.01228524068103085,"3426":0.013461869131504657,"3427":-0.002370392730381649,"3428":0.004920168468628202,"3429":-0.002434144469734005,"3430":0.0010658646310834994,"3431":-0.003774600098580038,"3432":-0.0019121067338771884,"3433":0.006079171630416679,"3434":0.002339240742319006,"3435":0.0010002740007426336,"3436":0.024330084918040205,"3437":-0.016567804296625313,"3438":-0.008631333906067185,"3439":0.004118488935022251,"3440":0.01881892516040137,"3441":-0.011511616348628576,"3442":-0.011529841034277464,"3443":0.016324567515931927,"3444":-0.010436653267240076,"3445":-0.0030825357301411515,"3446":-0.0026786720728811837,"3447":-0.00004173757907940645,"3448":0.01843002522880444,"3449":-0.010389544445413254,"3450":0.006449264737499364,"3451":0.000701583151919253,"3452":0.013433095831229582,"3453":-0.008262816471106955,"3454":-0.01381686633351033,"3455":-0.006240205897592775,"3456":-0.0007161018480075428,"3457":-0.011596366500683889,"3458":0.009989488257958387,"3459":-0.012576873437003228,"3460":-0.015186057873969039,"3461":0.005814223069495755,"3462":-0.00470743887973439,"3463":0.0026795076792843517,"3464":-0.005731190373684568,"3465":-0.0037186849183114615,"3466":-0.0005584284355751964,"3467":0.001363414375223196,"3468":-0.00359431238473272,"3469":-0.020723372150826685,"3470":0.017641934706011945,"3471":-0.011028234882754527,"3472":0.009575750598619844,"3473":-0.001095323470137467,"3474":-0.006255085492187302,"3475":-0.024756834695763695,"3476":-0.000371784939007583,"3477":-0.009961293400795835,"3478":0.0020273234620190425,"3479":-0.012008608275019504,"3480":0.018430602540254498,"3481":0.00997947540918208,"3482":-0.008078658875152023,"3483":0.00276376159559852,"3484":0.008740659680728236,"3485":-0.014637868765154582,"3486":0.007382375719161279,"3487":0.014162063679154464,"3488":0.007925746137232115,"3489":-0.00372987615364209,"3490":0.00374590000683434,"3491":-0.01506884891655445,"3492":-0.0013819927499300255,"3493":0.004968872028349187,"3494":-0.018753291895561894,"3495":-0.01120487043664448,"3496":0.015237766386475823,"3497":0.0034242024948334727,"3498":0.00620973382453292,"3499":-0.004904901447944668,"3500":-0.016051318193942926,"3501":0.0008332738842843059,"3502":0.009340714793592613,"3503":-0.012412122051861018,"3504":-0.007691940813647313,"3505":0.0017448466153664906,"3506":0.0017943509822258856,"3507":-0.0006235267315137504,"3508":-0.003020427686572561,"3509":-0.014000703454899325,"3510":-0.014769447974703243,"3511":-0.002790315001746055,"3512":0.016453407654669946,"3513":-0.012431036760052317,"3514":-0.005513146804868063,"3515":0.012726299405103735,"3516":0.02199762363412816,"3517":0.007223847092401494,"3518":0.001133646805336569,"3519":0.01867431206522611,"3520":0.007238383384298151,"3521":0.013724533317738688,"3522":0.016862785326348804,"3523":0.003206538306551565,"3524":0.010160321680418615,"3525":-0.014212773951730593,"3526":0.0032131584815099238,"3527":-0.013816125742059907,"3528":0.019244599974333535,